{"learner":{"attributes":{"best_iteration":"260","best_score":"18.134185298987937","scikit_learn":"{\"_estimator_type\": \"regressor\"}"},"feature_names":[],"feature_types":[],"gradient_booster":{"model":{"cats":{"enc":[],"feature_segments":[],"sorted_idx":[]},"gbtree_model_param":{"num_parallel_tree":"1","num_trees":"291"},"iteration_indptr":[0,1,2,3,4,5,6,7,8,9,10,11,12,13,14,15,16,17,18,19,20,21,22,23,24,25,26,27,28,29,30,31,32,33,34,35,36,37,38,39,40,41,42,43,44,45,46,47,48,49,50,51,52,53,54,55,56,57,58,59,60,61,62,63,64,65,66,67,68,69,70,71,72,73,74,75,76,77,78,79,80,81,82,83,84,85,86,87,88,89,90,91,92,93,94,95,96,97,98,99,100,101,102,103,104,105,106,107,108,109,110,111,112,113,114,115,116,117,118,119,120,121,122,123,124,125,126,127,128,129,130,131,132,133,134,135,136,137,138,139,140,141,142,143,144,145,146,147,148,149,150,151,152,153,154,155,156,157,158,159,160,161,162,163,164,165,166,167,168,169,170,171,172,173,174,175,176,177,178,179,180,181,182,183,184,185,186,187,188,189,190,191,192,193,194,195,196,197,198,199,200,201,202,203,204,205,206,207,208,209,210,211,212,213,214,215,216,217,218,219,220,221,222,223,224,225,226,227,228,229,230,231,232,233,234,235,236,237,238,239,240,241,242,243,244,245,246,247,248,249,250,251,252,253,254,255,256,257,258,259,260,261,262,263,264,265,266,267,268,269,270,271,272,273,274,275,276,277,278,279,280,281,282,283,284,285,286,287,288,289,290,291],"tree_info":[0,0,0,0,0,0,0,0,0,0,0,0,0,0,0,0,0,0,0,0,0,0,0,0,0,0,0,0,0,0,0,0,0,0,0,0,0,0,0,0,0,0,0,0,0,0,0,0,0,0,0,0,0,0,0,0,0,0,0,0,0,0,0,0,0,0,0,0,0,0,0,0,0,0,0,0,0,0,0,0,0,0,0,0,0,0,0,0,0,0,0,0,0,0,0,0,0,0,0,0,0,0,0,0,0,0,0,0,0,0,0,0,0,0,0,0,0,0,0,0,0,0,0,0,0,0,0,0,0,0,0,0,0,0,0,0,0,0,0,0,0,0,0,0,0,0,0,0,0,0,0,0,0,0,0,0,0,0,0,0,0,0,0,0,0,0,0,0,0,0,0,0,0,0,0,0,0,0,0,0,0,0,0,0,0,0,0,0,0,0,0,0,0,0,0,0,0,0,0,0,0,0,0,0,0,0,0,0,0,0,0,0,0,0,0,0,0,0,0,0,0,0,0,0,0,0,0,0,0,0,0,0,0,0,0,0,0,0,0,0,0,0,0,0,0,0,0,0,0,0,0,0,0,0,0,0,0,0,0,0,0,0,0,0,0,0,0,0,0,0,0,0,0,0,0,0,0,0,0,0,0,0,0,0,0,0,0,0,0,0,0],"trees":[{"base_weights":[1.4443305E-1,1.9776628E1,-5.1676273E1,2.3866991E1,-1.9552198E1,-3.1323652E1,-6.85224E1,3.2871563E1,1.6795277E1,1.8477055E0,-3.6419216E1,-2.3617573E1,-5.1460873E1,-6.0329174E1,-7.778213E1,2.805984E1,3.6589222E1,2.217491E1,3.0034344E0,1.9607697E1,-6.0664067E0,-3.1535923E1,-5.2676373E1,-3.6237217E1,-1.4317222E1,-4.84889E1,-3.2102983E0,-5.650642E1,-7.040014E1,-3.6559052E0,-4.054111E0,2.4614021E1,3.2871067E1,3.385146E1,1.891611E0,2.3612448E1,-7.072868E0,1.5585426E1,-7.5481853E0,2.342564E1,-3.7473996E0,-1.41726E0,-1.9593672E1,-2.1802818E1,-3.5987698E1,-2.3291187E0,-2.8602939E0,-3.7010006E1,1.1731013E0,-1.7903343E1,7.9908977E0,-3.6814846E1,-5.0863567E1,-4.416469E1,-5.930149E1,-3.2973695E0,-3.7347906E0,6.763348E-1,1.4371265E0,1.6796042E0,2.1207447E-1,5.686455E-1,1.7242997E0,8.989796E-1,1.4279084E0,-1.6735886E0,2.7974162E-1,1.5104282E0,6.0151404E-1,1.9868045E-1,-7.215055E-1,1.5149522E0,6.7927843E-1,3.4506258E-2,-4.136358E-1,1.9841765E-1,-4.6117702E-1,-4.455143E-1,-1.117175E0,-1.3187343E0,-3.6165994E-1,-2.0127823E0,-1.5224068E0,-1.4096261E0,-2.0653148E0,-1.3650115E0,-6.2786096E-1,7.117745E-1,-8.8657236E-1,-1.2845923E0,-2.0073743E0,-2.6043882E0,-1.6819016E0,-2.2880924E0,2.2320608E-2,-2.7830255E0,-3.251461E0],"categories":[],"categories_nodes":[],"categories_segments":[],"categories_sizes":[],"default_left":[0,0,0,0,0,0,0,0,0,0,0,0,0,0,0,0,0,0,0,0,0,0,0,0,0,0,0,0,0,0,0,0,0,0,0,0,0,0,0,0,0,0,0,0,0,0,0,0,0,0,0,0,0,0,0,0,0,0,0,0,0,0,0,0,0,0,0,0,0,0,0,0,0,0,0,0,0,0,0,0,0,0,0,0,0,0,0,0,0,0,0,0,0,0,0,0,0],"id":0,"left_children":[1,3,5,7,9,11,13,15,17,19,21,23,25,27,29,31,33,35,37,39,41,43,45,47,49,51,-1,53,55,-1,-1,57,59,61,-1,63,65,67,69,71,73,75,77,79,81,-1,-1,83,-1,85,87,89,91,93,95,-1,-1,-1,-1,-1,-1,-1,-1,-1,-1,-1,-1,-1,-1,-1,-1,-1,-1,-1,-1,-1,-1,-1,-1,-1,-1,-1,-1,-1,-1,-1,-1,-1,-1,-1,-1,-1,-1,-1,-1,-1,-1],"loss_changes":[1.3303943E7,1.5261498E6,1.22975E6,5.46499E5,3.227623E5,2.5156375E5,1.44372E5,6.6549E4,3.5710612E5,5.5639355E4,3.8024625E4,1.3796938E5,1.39205E4,3.631775E4,8.201E3,2.65565E4,5.95375E3,1.4576962E5,1.796105E5,1.0968305E4,1.7202055E4,1.5978156E4,4.715625E2,2.3937125E4,5.462383E4,8.3480625E3,0E0,2.37255E4,4.92125E2,0E0,0E0,4.382475E4,1.40145E4,9.21675E3,0E0,9.1443E4,5.4699438E4,3.1708547E4,5.841738E4,6.685633E3,3.679292E2,8.655656E3,1.8542109E3,8.065551E3,5.0088438E3,0E0,0E0,1.7542375E4,0E0,2.9142266E4,1.5511496E4,1.4085E3,4.649875E3,1.03563125E4,9.29825E3,0E0,0E0,0E0,0E0,0E0,0E0,0E0,0E0,0E0,0E0,0E0,0E0,0E0,0E0,0E0,0E0,0E0,0E0,0E0,0E0,0E0,0E0,0E0,0E0,0E0,0E0,0E0,0E0,0E0,0E0,0E0,0E0,0E0,0E0,0E0,0E0,0E0,0E0,0E0,0E0,0E0,0E0],"parents":[2147483647,0,0,1,1,2,2,3,3,4,4,5,5,6,6,7,7,8,8,9,9,10,10,11,11,12,12,13,13,14,14,15,15,16,16,17,17,18,18,19,19,20,20,21,21,22,22,23,23,24,24,25,25,27,27,28,28,31,31,32,32,33,33,35,35,36,36,37,37,38,38,39,39,40,40,41,41,42,42,43,43,44,44,47,47,49,49,50,50,51,51,52,52,53,53,54,54],"right_children":[2,4,6,8,10,12,14,16,18,20,22,24,26,28,30,32,34,36,38,40,42,44,46,48,50,52,-1,54,56,-1,-1,58,60,62,-1,64,66,68,70,72,74,76,78,80,82,-1,-1,84,-1,86,88,90,92,94,96,-1,-1,-1,-1,-1,-1,-1,-1,-1,-1,-1,-1,-1,-1,-1,-1,-1,-1,-1,-1,-1,-1,-1,-1,-1,-1,-1,-1,-1,-1,-1,-1,-1,-1,-1,-1,-1,-1,-1,-1,-1,-1],"split_conditions":[5.077144E-1,2.6281074E-1,5.848413E-1,4.6978393E-1,3.8616744E-1,1.9649108E-1,6.458333E-1,6.4573646E-1,1.7629005E-1,3.4311274E-1,3.242758E-2,4.6609807E-1,4.3556494E-1,3.3464956E-1,6.799538E-1,2.327819E-1,5.942029E-1,5.1081187E-1,4.1850713E-1,6.958245E-2,2.3041372E-1,4.087421E-1,4.2918637E-1,5.3059584E-1,4.4766507E-1,4.6666667E-1,-3.2102983E0,5.5714285E-1,4.609082E-1,-3.6559052E0,-4.054111E0,4.675504E-1,6.666667E-1,3.440243E-1,1.891611E0,-6.3965884E-3,3.8808373E-1,3.4809542E-1,5.3935033E-1,4.826684E-1,1.6666667E-1,6.592373E-2,5.1288956E-1,2.6509702E-1,4.6215782E-1,-2.3291187E0,-2.8602939E0,6.398553E-2,1.1731013E0,3.6070853E-1,2.1103747E-2,2.6892218E-1,4.4642857E-1,6.332623E-1,7.315337E-2,-3.2973695E0,-3.7347906E0,6.763348E-1,1.4371265E0,1.6796042E0,2.1207447E-1,5.686455E-1,1.7242997E0,8.989796E-1,1.4279084E0,-1.6735886E0,2.7974162E-1,1.5104282E0,6.0151404E-1,1.9868045E-1,-7.215055E-1,1.5149522E0,6.7927843E-1,3.4506258E-2,-4.136358E-1,1.9841765E-1,-4.6117702E-1,-4.455143E-1,-1.117175E0,-1.3187343E0,-3.6165994E-1,-2.0127823E0,-1.5224068E0,-1.4096261E0,-2.0653148E0,-1.3650115E0,-6.2786096E-1,7.117745E-1,-8.8657236E-1,-1.2845923E0,-2.0073743E0,-2.6043882E0,-1.6819016E0,-2.2880924E0,2.2320608E-2,-2.7830255E0,-3.251461E0],"split_indices":[65,128,65,68,110,127,80,150,125,140,126,35,28,27,90,117,122,90,90,86,127,110,115,70,72,80,0,80,25,0,0,157,148,118,0,139,72,90,63,113,82,136,143,112,72,0,0,121,0,122,76,25,132,88,136,0,0,0,0,0,0,0,0,0,0,0,0,0,0,0,0,0,0,0,0,0,0,0,0,0,0,0,0,0,0,0,0,0,0,0,0,0,0,0,0,0,0],"split_type":[0,0,0,0,0,0,0,0,0,0,0,0,0,0,0,0,0,0,0,0,0,0,0,0,0,0,0,0,0,0,0,0,0,0,0,0,0,0,0,0,0,0,0,0,0,0,0,0,0,0,0,0,0,0,0,0,0,0,0,0,0,0,0,0,0,0,0,0,0,0,0,0,0,0,0,0,0,0,0,0,0,0,0,0,0,0,0,0,0,0,0,0,0,0,0,0,0],"sum_hessian":[1.3075E4,9.483E3,3.592E3,8.59E3,8.93E2,1.628E3,1.964E3,3.777E3,4.813E3,3.94E2,4.99E2,1.179E3,4.49E2,1.046E3,9.18E2,1.65E3,2.127E3,3.462E3,1.351E3,1.21E2,2.73E2,3.86E2,1.13E2,4.99E2,6.8E2,3.68E2,8.1E1,7.63E2,2.83E2,3.9E2,5.28E2,9.65E2,6.85E2,6.73E2,1.454E3,3.3E3,1.62E2,6.16E2,7.35E2,1.04E2,1.7E1,2.04E2,6.9E1,1.23E2,2.63E2,5.3E1,6E1,4.93E2,6E0,5.86E2,9.4E1,6.5E1,3.03E2,1.44E2,6.19E2,1.47E2,1.36E2,2.63E2,7.02E2,6.68E2,1.7E1,1.9E1,6.54E2,1.545E3,1.755E3,5.2E1,1.1E2,1.19E2,4.97E2,2.75E2,4.6E2,6E1,4.4E1,9E0,8E0,1.21E2,8.3E1,1.5E1,5.4E1,9.3E1,3E1,1.45E2,1.18E2,1.64E2,3.29E2,2.11E2,3.75E2,7.6E1,1.8E1,1.7E1,4.8E1,2.81E2,2.2E1,1.39E2,5E0,3.85E2,2.34E2],"tree_param":{"num_deleted":"0","num_feature":"160","num_nodes":"97","size_leaf_vector":"1"}},{"base_weights":[2.6834834E-1,1.8871588E1,-4.897678E1,2.256408E1,-2.1713705E1,-2.9156742E1,-6.4143524E1,1.40541725E1,2.9355421E1,-2.4829018E-1,-3.4309483E1,-2.1785158E1,-4.8449963E1,-5.4375298E1,-7.210134E1,1.838015E1,-6.5373855E0,3.3770195E1,2.474834E1,9.1496725E0,-1.0439403E1,-2.97961E1,-4.9718494E1,-3.1422966E1,-1.07785845E1,-4.5348625E1,-3.009516E0,-5.0942955E1,-3.2524388E0,-6.7537605E1,-3.8413136E0,1.7314321E0,2.1105907E1,6.5486617E0,-1.979953E1,3.084375E1,3.548845E1,2.8674082E1,1.9947788E1,1.832984E1,-5.1451707E0,-6.7194743E0,-2.3539162E1,-2.1843739E1,-3.517481E1,-2.2436779E0,-2.751494E0,-3.8561256E1,-2.3788977E1,8.915631E0,-1.4248338E1,-3.679146E1,-4.8406322E1,-3.2492744E1,-5.2621735E1,-6.4707504E1,-3.5829403E0,-1.2808894E0,4.4921747E-1,1.2704663E0,7.840977E-1,1.0546955E0,1.5662374E-2,-1.2302254E0,-3.515308E-1,1.6025441E0,8.1655836E-1,1.7976077E0,1.5330453E0,1.225057E0,1.6980044E0,1.1380243E0,6.5945524E-1,1.4929953E0,5.6484026E-1,-6.415974E-1,9.24768E-3,5.550506E-1,-4.2881975E-1,-7.94221E-1,-1.2972041E0,-1.2351074E0,-5.0458056E-1,-2.0670104E0,-1.606115E0,-1.8205799E0,-2.6493738E0,4.0003797E-1,-1.2884607E0,1.0085344E0,-1.0834548E0,1.4647137E-1,-8.7868756E-1,-1.2117879E0,-1.9513168E0,-2.512259E0,-1.564301E0,-1.7860409E0,-1.2366027E-1,-2.4629855E0,-2.914131E0,-3.3715203E0,-2.9727933E0],"categories":[],"categories_nodes":[],"categories_segments":[],"categories_sizes":[],"default_left":[0,0,0,0,0,0,0,0,0,0,0,0,0,0,0,0,0,0,0,0,0,0,0,0,0,0,0,0,0,0,0,0,0,0,0,0,0,0,0,0,0,0,0,0,0,0,0,0,0,0,0,0,0,0,0,0,0,0,0,0,0,0,0,0,0,0,0,0,0,0,0,0,0,0,0,0,0,0,0,0,0,0,0,0,0,0,0,0,0,0,0,0,0,0,0,0,0,0,0,0,0,0,0],"id":1,"left_children":[1,3,5,7,9,11,13,15,17,19,21,23,25,27,29,31,33,35,37,39,41,43,45,47,49,51,-1,53,-1,55,-1,57,59,61,63,65,67,69,71,73,75,77,79,81,83,-1,-1,85,87,89,91,93,95,97,99,101,-1,-1,-1,-1,-1,-1,-1,-1,-1,-1,-1,-1,-1,-1,-1,-1,-1,-1,-1,-1,-1,-1,-1,-1,-1,-1,-1,-1,-1,-1,-1,-1,-1,-1,-1,-1,-1,-1,-1,-1,-1,-1,-1,-1,-1,-1,-1],"loss_changes":[1.2024982E7,1.4282142E6,1.079999E6,5.042955E5,2.1493506E5,2.2108762E5,1.544875E5,3.4556812E5,9.79255E4,2.8349475E4,3.3353562E4,1.1973869E5,1.29529375E4,3.034225E4,1.8948E4,1.4540538E5,1.1710305E5,1.1354E4,4.4276125E4,2.0304902E4,6.7584863E3,1.5907594E4,4.0275E2,3.1936125E4,3.634462E4,7.2375625E3,0E0,1.99635E4,0E0,2.091E3,0E0,8.988796E4,6.388E4,3.0827777E4,2.0377562E4,1.5658875E4,2.369625E3,2.7992125E4,2.0113125E4,7.2811504E3,2.5028977E3,3.8011719E3,1.5439062E2,5.1220156E3,3.012125E3,0E0,0E0,7.6752812E3,1.871564E4,2.7975562E4,2.58155E4,1.7135781E3,6.32175E3,5.8190586E3,9.298625E3,1.025875E3,0E0,0E0,0E0,0E0,0E0,0E0,0E0,0E0,0E0,0E0,0E0,0E0,0E0,0E0,0E0,0E0,0E0,0E0,0E0,0E0,0E0,0E0,0E0,0E0,0E0,0E0,0E0,0E0,0E0,0E0,0E0,0E0,0E0,0E0,0E0,0E0,0E0,0E0,0E0,0E0,0E0,0E0,0E0,0E0,0E0,0E0,0E0],"parents":[2147483647,0,0,1,1,2,2,3,3,4,4,5,5,6,6,7,7,8,8,9,9,10,10,11,11,12,12,13,13,14,14,15,15,16,16,17,17,18,18,19,19,20,20,21,21,22,22,23,23,24,24,25,25,27,27,29,29,31,31,32,32,33,33,34,34,35,35,36,36,37,37,38,38,39,39,40,40,41,41,42,42,43,43,44,44,47,47,48,48,49,49,50,50,51,51,52,52,53,53,54,54,55,55],"right_children":[2,4,6,8,10,12,14,16,18,20,22,24,26,28,30,32,34,36,38,40,42,44,46,48,50,52,-1,54,-1,56,-1,58,60,62,64,66,68,70,72,74,76,78,80,82,84,-1,-1,86,88,90,92,94,96,98,100,102,-1,-1,-1,-1,-1,-1,-1,-1,-1,-1,-1,-1,-1,-1,-1,-1,-1,-1,-1,-1,-1,-1,-1,-1,-1,-1,-1,-1,-1,-1,-1,-1,-1,-1,-1,-1,-1,-1,-1,-1,-1,-1,-1,-1,-1,-1,-1],"split_conditions":[5.077144E-1,2.6653504E-1,5.817522E-1,4.5736435E-1,3.8428167E-1,1.9649108E-1,6.4166665E-1,2.2489455E-1,2.7440476E-1,3.682955E-1,3.242758E-2,4.863124E-1,3.362315E-2,3.3464956E-1,7.011905E-1,3.9130434E-1,4.3547517E-1,5.974235E-1,1.1904762E-2,2.6055372E-1,2.738042E-1,4.1517332E-1,4.59605E-1,5.3944564E-1,4.7764525E-1,3.75E-1,-3.009516E0,5.345238E-1,-3.2524388E0,2.81881E-1,-3.8413136E0,4.1151386E-1,1.866194E-1,3.6372963E-1,8.132501E-2,8.928473E-1,3.1959826E-1,0E0,2.993459E-1,4.663332E-1,1.6350636E-2,5E-1,7.356077E-1,9.272477E-2,3.5658914E-1,-2.2436779E0,-2.751494E0,6.666667E-1,3.690476E-1,6.7803836E-1,1.5007078E-2,4.4050577E-1,4.4642857E-1,6.140725E-1,7.20061E-2,3.381663E-1,-3.5829403E0,-1.2808894E0,4.4921747E-1,1.2704663E0,7.840977E-1,1.0546955E0,1.5662374E-2,-1.2302254E0,-3.515308E-1,1.6025441E0,8.1655836E-1,1.7976077E0,1.5330453E0,1.225057E0,1.6980044E0,1.1380243E0,6.5945524E-1,1.4929953E0,5.6484026E-1,-6.415974E-1,9.24768E-3,5.550506E-1,-4.2881975E-1,-7.94221E-1,-1.2972041E0,-1.2351074E0,-5.0458056E-1,-2.0670104E0,-1.606115E0,-1.8205799E0,-2.6493738E0,4.0003797E-1,-1.2884607E0,1.0085344E0,-1.0834548E0,1.4647137E-1,-8.7868756E-1,-1.2117879E0,-1.9513168E0,-2.512259E0,-1.564301E0,-1.7860409E0,-1.2366027E-1,-2.4629855E0,-2.914131E0,-3.3715203E0,-2.9727933E0],"split_indices":[65,78,65,102,110,127,30,78,80,90,126,20,126,27,30,122,90,122,134,75,77,110,65,38,90,82,0,30,0,78,0,87,78,90,96,158,65,134,92,143,76,148,38,96,102,0,0,33,32,138,126,110,132,88,136,35,0,0,0,0,0,0,0,0,0,0,0,0,0,0,0,0,0,0,0,0,0,0,0,0,0,0,0,0,0,0,0,0,0,0,0,0,0,0,0,0,0,0,0,0,0,0,0],"split_type":[0,0,0,0,0,0,0,0,0,0,0,0,0,0,0,0,0,0,0,0,0,0,0,0,0,0,0,0,0,0,0,0,0,0,0,0,0,0,0,0,0,0,0,0,0,0,0,0,0,0,0,0,0,0,0,0,0,0,0,0,0,0,0,0,0,0,0,0,0,0,0,0,0,0,0,0,0,0,0,0,0,0,0,0,0,0,0,0,0,0,0,0,0,0,0,0,0,0,0,0,0,0,0],"sum_hessian":[1.3124E4,9.526E3,3.598E3,8.732E3,7.94E2,1.561E3,2.037E3,3.877E3,4.855E3,2.94E2,5E2,1.131E3,4.3E2,9.18E2,1.119E3,3.204E3,6.73E2,2.476E3,2.379E3,1.53E2,1.41E2,3.89E2,1.11E2,6.02E2,5.29E2,3.44E2,8.6E1,6.99E2,2.19E2,5.77E2,5.42E2,4.51E2,2.753E3,3.39E2,3.34E2,9.23E2,1.553E3,1.306E3,1.073E3,9.3E1,6E1,1.11E2,3E1,1.59E2,2.3E2,6.3E1,4.8E1,3.09E2,2.93E2,7.9E1,4.5E2,9.4E1,2.5E2,6E1,6.39E2,3.52E2,2.25E2,9.4E1,3.57E2,1.533E3,1.22E3,1.01E2,2.38E2,2.42E2,9.2E1,8.51E2,7.2E1,1.411E3,1.42E2,7.33E2,5.73E2,7.56E2,3.17E2,3.4E1,5.9E1,2.4E1,3.6E1,1E1,1.01E2,9E0,2.1E1,1.27E2,3.2E1,7.2E1,1.58E2,2.72E2,3.7E1,1.7E1,2.76E2,5.8E1,2.1E1,7.3E1,3.77E2,1.6E1,7.8E1,2.24E2,2.6E1,5.4E1,6E0,4.07E2,2.32E2,2.24E2,1.28E2],"tree_param":{"num_deleted":"0","num_feature":"160","num_nodes":"103","size_leaf_vector":"1"}},{"base_weights":[-2.1441147E-1,1.8033766E1,-4.69548E1,2.1695906E1,-1.822183E1,-2.7721785E1,-6.1299877E1,2.8607365E1,1.3983872E1,2.070469E0,-3.2709118E1,-2.0773308E1,-4.642033E1,-5.2140392E1,-6.878407E1,2.4570076E1,3.309029E1,1.9178387E1,2.0214139E-1,1.1668911E1,-1.0844129E1,-2.7754358E1,-4.5612263E1,-3.0396711E1,-1.1280288E1,-4.3417667E1,-2.8391504E0,-4.8732162E1,-5.9482735E1,-3.1332219E0,-7.188219E1,2.0547884E1,2.7864767E1,1.7161177E0,3.1114319E1,2.0674038E1,-8.092894E0,1.2381376E1,-7.312097E0,1.7028418E1,-3.0849075E0,-1.4606309E1,-2.7246678E0,-1.9143003E1,-3.306528E1,-1.9048197E0,-2.5708153E0,-3.1852673E1,-4.0138472E-2,-3.2848793E1,-7.799605E0,-3.568972E1,-4.5840187E1,-4.4143433E1,-5.5326004E1,-5.264387E1,-3.0570986E0,-3.6815674E0,-3.3368394E0,1.299927E0,9.0585774E-1,1.7307358E0,1.2197354E0,1.5703638E0,7.6426286E-1,7.3367697E-1,1.2023879E0,-1.8405085E0,-2.4666972E-2,8.9183325E-1,-2.8749421E-2,2.2318791E-1,-6.547259E-1,1.222349E0,5.524836E-1,4.4746247E-1,-3.8541806E-1,-3.092743E-1,-9.1892767E-1,-5.1006764E-1,2.2827008E-1,-1.1390625E0,-2.6888123E-1,-1.8588009E0,-1.3576593E0,-1.110385E0,-1.7610434E0,5.907266E-1,-3.8571647E-1,-9.816273E-1,-2.2785861E0,-2.0212002E-1,-1.5776368E0,-1.2365516E0,-1.8856086E0,-2.3675764E0,-1.5497166E0,-6.4883846E-1,-2.2549129E0,-2.5600533E0,-3.0035074E0,-1.9265162E0,-2.755526E0],"categories":[],"categories_nodes":[],"categories_segments":[],"categories_sizes":[],"default_left":[0,0,0,0,0,0,0,0,0,0,0,0,0,0,0,0,0,0,0,0,0,0,0,0,0,0,0,0,0,0,0,0,0,0,0,0,0,0,0,0,0,0,0,0,0,0,0,0,0,0,0,0,0,0,0,0,0,0,0,0,0,0,0,0,0,0,0,0,0,0,0,0,0,0,0,0,0,0,0,0,0,0,0,0,0,0,0,0,0,0,0,0,0,0,0,0,0,0,0,0,0,0,0],"id":2,"left_children":[1,3,5,7,9,11,13,15,17,19,21,23,25,27,29,31,33,35,37,39,41,43,45,47,49,51,-1,53,55,-1,57,59,61,-1,63,65,67,69,71,73,75,77,79,81,83,-1,-1,85,87,89,91,93,95,97,99,101,-1,-1,-1,-1,-1,-1,-1,-1,-1,-1,-1,-1,-1,-1,-1,-1,-1,-1,-1,-1,-1,-1,-1,-1,-1,-1,-1,-1,-1,-1,-1,-1,-1,-1,-1,-1,-1,-1,-1,-1,-1,-1,-1,-1,-1,-1,-1],"loss_changes":[1.1135811E7,1.2471348E6,1.009738E6,4.5420325E5,2.534819E5,2.027535E5,1.4029E5,8.0572E4,2.8871412E5,4.4752227E4,3.0884438E4,1.04254625E5,1.0717625E4,2.081375E4,1.7323E4,3.08295E4,4.10625E3,1.1963775E5,1.0121808E5,1.6422078E4,4.6626875E3,1.61005625E4,4.0521562E3,2.51E4,4.3131992E4,4.59E3,0E0,1.730575E4,1.286875E2,0E0,1.894E3,1.37143125E4,2.959925E4,0E0,3.354875E3,5.586075E4,3.33686E4,2.9839238E4,4.6634887E4,6.468078E3,3.1846648E3,3.2192324E3,2.772415E3,6.986297E3,4.452328E3,0E0,0E0,1.6819625E4,2.5470564E3,1.2550742E4,4.4402336E4,9.228281E2,4.1338125E3,1.101475E4,2.0795625E3,1.300625E2,0E0,0E0,0E0,0E0,0E0,0E0,0E0,0E0,0E0,0E0,0E0,0E0,0E0,0E0,0E0,0E0,0E0,0E0,0E0,0E0,0E0,0E0,0E0,0E0,0E0,0E0,0E0,0E0,0E0,0E0,0E0,0E0,0E0,0E0,0E0,0E0,0E0,0E0,0E0,0E0,0E0,0E0,0E0,0E0,0E0,0E0,0E0],"parents":[2147483647,0,0,1,1,2,2,3,3,4,4,5,5,6,6,7,7,8,8,9,9,10,10,11,11,12,12,13,13,14,14,15,15,16,16,17,17,18,18,19,19,20,20,21,21,22,22,23,23,24,24,25,25,27,27,28,28,30,30,31,31,32,32,34,34,35,35,36,36,37,37,38,38,39,39,40,40,41,41,42,42,43,43,44,44,47,47,48,48,49,49,50,50,51,51,52,52,53,53,54,54,55,55],"right_children":[2,4,6,8,10,12,14,16,18,20,22,24,26,28,30,32,34,36,38,40,42,44,46,48,50,52,-1,54,56,-1,58,60,62,-1,64,66,68,70,72,74,76,78,80,82,84,-1,-1,86,88,90,92,94,96,98,100,102,-1,-1,-1,-1,-1,-1,-1,-1,-1,-1,-1,-1,-1,-1,-1,-1,-1,-1,-1,-1,-1,-1,-1,-1,-1,-1,-1,-1,-1,-1,-1,-1,-1,-1,-1,-1,-1,-1,-1,-1,-1,-1,-1,-1,-1,-1,-1],"split_conditions":[5.077144E-1,2.6281074E-1,5.817522E-1,4.6995273E-1,3.8428167E-1,1.9649108E-1,6.335129E-1,6.4728683E-1,1.7629005E-1,3.609465E-1,3.3464956E-1,3.7526652E-1,3.7563494E-1,5.595238E-1,6.971303E-1,-4.142502E-3,2.2589286E-1,5.1081187E-1,4.1850713E-1,2.515301E-1,7.451125E-2,4.1605625E-1,4.3556494E-1,6.586151E-1,3.2142857E-1,3.75E-1,-2.8391504E0,2.4246387E-1,6.785714E-1,-3.1332219E0,3.2170543E-1,5.983066E-2,4.1425021E-4,1.7161177E0,2.7195659E-2,-3.7037037E-2,3.9452496E-1,1.8293996E-1,5.345542E-1,4.663332E-1,6.3552886E-1,5.1288956E-1,1.8181819E-1,2.6509702E-1,6.974593E-1,-1.9048197E0,-2.5708153E0,6.383224E-1,5.905821E-1,2.8406367E-1,4.7619048E-1,6.0938555E-1,4.4642857E-1,5.8928573E-1,3.222651E-1,3.152387E-1,-3.0570986E0,-3.6815674E0,-3.3368394E0,1.299927E0,9.0585774E-1,1.7307358E0,1.2197354E0,1.5703638E0,7.6426286E-1,7.3367697E-1,1.2023879E0,-1.8405085E0,-2.4666972E-2,8.9183325E-1,-2.8749421E-2,2.2318791E-1,-6.547259E-1,1.222349E0,5.524836E-1,4.4746247E-1,-3.8541806E-1,-3.092743E-1,-9.1892767E-1,-5.1006764E-1,2.2827008E-1,-1.1390625E0,-2.6888123E-1,-1.8588009E0,-1.3576593E0,-1.110385E0,-1.7610434E0,5.907266E-1,-3.8571647E-1,-9.816273E-1,-2.2785861E0,-2.0212002E-1,-1.5776368E0,-1.2365516E0,-1.8856086E0,-2.3675764E0,-1.5497166E0,-6.4883846E-1,-2.2549129E0,-2.5600533E0,-3.0035074E0,-1.9265162E0,-2.755526E0],"split_indices":[65,128,65,18,110,127,90,150,125,140,27,137,75,32,15,159,130,90,90,125,116,110,28,73,132,82,0,125,83,0,100,116,159,0,76,124,22,77,63,143,155,143,112,112,158,0,0,143,113,112,32,118,132,83,77,112,0,0,0,0,0,0,0,0,0,0,0,0,0,0,0,0,0,0,0,0,0,0,0,0,0,0,0,0,0,0,0,0,0,0,0,0,0,0,0,0,0,0,0,0,0,0,0],"split_type":[0,0,0,0,0,0,0,0,0,0,0,0,0,0,0,0,0,0,0,0,0,0,0,0,0,0,0,0,0,0,0,0,0,0,0,0,0,0,0,0,0,0,0,0,0,0,0,0,0,0,0,0,0,0,0,0,0,0,0,0,0,0,0,0,0,0,0,0,0,0,0,0,0,0,0,0,0,0,0,0,0,0,0,0,0,0,0,0,0,0,0,0,0,0,0,0,0,0,0,0,0,0,0],"sum_hessian":[1.3054E4,9.389E3,3.665E3,8.528E3,8.61E2,1.567E3,2.098E3,4.496E3,4.032E3,3.59E2,5.02E2,1.144E3,4.23E2,9.47E2,1.151E3,2.369E3,2.127E3,2.928E3,1.104E3,2.06E2,1.53E2,3.65E2,1.37E2,5.67E2,5.77E2,3.32E2,9.1E1,6.52E2,2.95E2,3.94E2,7.57E2,1.07E3,1.299E3,1.3E3,8.27E2,2.776E3,1.52E2,4.21E2,6.83E2,1.51E2,5.5E1,1.04E2,4.9E1,1.41E2,2.24E2,6.3E1,7.4E1,5.41E2,2.6E1,7.9E1,4.98E2,8.3E1,2.49E2,3.89E2,2.63E2,6.4E1,2.31E2,5.55E2,2.02E2,3.27E2,7.43E2,4.38E2,8.61E2,8.11E2,1.6E1,1.001E3,1.775E3,3.1E1,1.21E2,2.96E2,1.25E2,2.25E2,4.58E2,6.6E1,8.5E1,1.5E1,4E1,3.3E1,7.1E1,2.4E1,2.5E1,1.11E2,3E1,1.29E2,9.5E1,1.42E2,3.99E2,1E1,1.6E1,4E1,3.9E1,4.31E2,6.7E1,1.5E1,6.8E1,2.24E2,2.5E1,1.2E1,3.77E2,1.47E2,1.16E2,1.2E1,5.2E1],"tree_param":{"num_deleted":"0","num_feature":"160","num_nodes":"103","size_leaf_vector":"1"}},{"base_weights":[-8.307004E-2,1.6718515E1,-4.5233795E1,2.0566298E1,-1.8119158E1,-2.6763454E1,-5.7644764E1,2.743986E1,1.303348E1,4.117915E0,-2.9509548E1,-2.0824106E1,-3.837749E1,-4.8689285E1,-6.487902E1,3.073213E1,2.3340319E1,1.7946796E1,5.012413E-1,1.2608048E1,-6.390717E0,-2.592861E1,-4.3187386E1,-1.5507667E1,-3.8901592E1,-4.2554398E1,-3.0364452E1,-4.2242435E1,-5.228841E1,-3.4637856E0,-6.050609E1,2.9313417E1,3.298464E1,1.829908E1,2.6833208E1,2.021048E1,-1.333693E0,-7.7293973E0,1.1085019E1,1.8316172E1,6.8616897E-1,-1.2087309E1,-1.0584515E0,-1.8544197E1,-3.1737553E1,-2.3813338E0,-1.904107E0,-2.5976784E1,-5.1095457E0,-4.040909E1,-1.8960804E1,-4.4111034E1,-2.3551353E1,-2.4503592E1,-2.1910615E0,-1.3307683E1,-4.3328495E1,-4.89661E1,-2.8749065E0,-5.66409E1,-3.152118E0,1.5083992E0,1.1618556E0,1.6535927E0,9.2569315E-1,4.8113042E-1,1.1711272E0,1.4078141E0,3.8552177E-1,1.2465129E0,7.597644E-1,-1.2592275E0,1.5037496E-1,6.413277E-2,-8.209939E-1,7.3693806E-1,-2.8893337E-1,1.0714806E0,2.7496877E-1,4.734996E-1,-1.69934E-1,5.1134888E-5,-7.8354543E-1,2.189581E-1,-5.843838E-1,-1.1210837E0,-5.9298915E-1,-2.5657585E-1,-1.6251833E0,-1.7050428E0,-7.9913586E-1,6.001496E-1,-5.088962E-1,-9.6620226E-1,-2.0829134E0,-1.0740813E0,-5.371181E-1,-2.4347095E0,-1.7847522E0,-1.7838408E0,-9.48034E-1,-1.0870115E0,-2.1195562E0,-1.0230677E0,-1.7128168E-2,-1.9272221E0,-2.472407E0,-2.1584659E0,-2.6174219E0,-3.0294607E0,-2.6555572E0],"categories":[],"categories_nodes":[],"categories_segments":[],"categories_sizes":[],"default_left":[0,0,0,0,0,0,0,0,0,0,0,0,0,0,0,0,0,0,0,0,0,0,0,0,0,0,0,0,0,0,0,0,0,0,0,0,0,0,0,0,0,0,0,0,0,0,0,0,0,0,0,0,0,0,0,0,0,0,0,0,0,0,0,0,0,0,0,0,0,0,0,0,0,0,0,0,0,0,0,0,0,0,0,0,0,0,0,0,0,0,0,0,0,0,0,0,0,0,0,0,0,0,0,0,0,0,0,0,0,0,0],"id":3,"left_children":[1,3,5,7,9,11,13,15,17,19,21,23,25,27,29,31,33,35,37,39,41,43,45,47,49,51,53,55,57,-1,59,61,63,65,67,69,71,73,75,77,79,81,83,85,87,-1,-1,89,91,93,95,97,99,101,-1,103,105,107,-1,109,-1,-1,-1,-1,-1,-1,-1,-1,-1,-1,-1,-1,-1,-1,-1,-1,-1,-1,-1,-1,-1,-1,-1,-1,-1,-1,-1,-1,-1,-1,-1,-1,-1,-1,-1,-1,-1,-1,-1,-1,-1,-1,-1,-1,-1,-1,-1,-1,-1,-1,-1],"loss_changes":[9.946814E6,1.2813332E6,8.13608E5,4.4523375E5,2.4100188E5,9.790506E4,1.345655E5,5.99995E4,2.5293862E5,2.8899156E4,2.9681375E4,9.059766E4,1.48664375E4,1.99175E4,1.8348E4,6.9905E3,3.4862375E4,1.2882494E5,1.0096084E5,1.2166758E4,4.390375E3,2.0897125E4,1.1012969E3,7.987566E4,5.6909062E3,8.2723125E3,1.2248125E4,1.0322125E4,7.697375E3,0E0,2.25975E3,7.27975E3,5.878125E2,3.64455E4,2.97355E4,6.213125E4,3.2279258E4,5.1086605E4,3.1325156E4,4.707883E3,2.1497476E3,3.033963E3,4.4445312E3,5.5105156E3,5.516375E3,0E0,0E0,2.9166422E4,3.2213121E4,4.4303438E3,1.1820703E2,9.4391875E3,7.6534375E2,5.0035625E3,0E0,1.289385E3,7.8636875E3,5.142E3,0E0,1.99125E2,0E0,0E0,0E0,0E0,0E0,0E0,0E0,0E0,0E0,0E0,0E0,0E0,0E0,0E0,0E0,0E0,0E0,0E0,0E0,0E0,0E0,0E0,0E0,0E0,0E0,0E0,0E0,0E0,0E0,0E0,0E0,0E0,0E0,0E0,0E0,0E0,0E0,0E0,0E0,0E0,0E0,0E0,0E0,0E0,0E0,0E0,0E0,0E0,0E0,0E0,0E0],"parents":[2147483647,0,0,1,1,2,2,3,3,4,4,5,5,6,6,7,7,8,8,9,9,10,10,11,11,12,12,13,13,14,14,15,15,16,16,17,17,18,18,19,19,20,20,21,21,22,22,23,23,24,24,25,25,26,26,27,27,28,28,30,30,31,31,32,32,33,33,34,34,35,35,36,36,37,37,38,38,39,39,40,40,41,41,42,42,43,43,44,44,47,47,48,48,49,49,50,50,51,51,52,52,53,53,55,55,56,56,57,57,59,59],"right_children":[2,4,6,8,10,12,14,16,18,20,22,24,26,28,30,32,34,36,38,40,42,44,46,48,50,52,54,56,58,-1,60,62,64,66,68,70,72,74,76,78,80,82,84,86,88,-1,-1,90,92,94,96,98,100,102,-1,104,106,108,-1,110,-1,-1,-1,-1,-1,-1,-1,-1,-1,-1,-1,-1,-1,-1,-1,-1,-1,-1,-1,-1,-1,-1,-1,-1,-1,-1,-1,-1,-1,-1,-1,-1,-1,-1,-1,-1,-1,-1,-1,-1,-1,-1,-1,-1,-1,-1,-1,-1,-1,-1,-1],"split_conditions":[5.0577146E-1,2.6281074E-1,5.3333336E-1,4.6995273E-1,3.8467407E-1,4.9962938E-1,6.2816465E-1,2.7440476E-1,1.758907E-1,3.5313582E-1,3.071845E-2,1.9864489E-1,4.4263566E-1,5.2954E-1,3.007752E-1,7.353462E-1,2.3143147E-1,4.9875084E-1,4.89533E-1,2.5438392E-1,5.671642E-1,3.0357143E-1,5.4993784E-1,3.9291465E-1,5.127976E-1,4.7826087E-1,2.3687068E-1,4.5984304E-1,7.1201223E-1,-3.4637856E0,7.1833444E-1,2.407341E-1,2.6079154E-1,4.6865508E-1,2.0393072E-1,5.952381E-3,3.558776E-1,2.2718298E-1,4.200785E-1,8.602596E-1,6.419083E-1,5.053305E-1,2.3041372E-1,5.736434E-1,1.8810016E-1,-2.3813338E0,-1.904107E0,1.9106165E-1,2.4569435E-1,5.539568E-1,5.404762E-1,4.6360707E-1,2.248062E-1,8.2253985E-2,-2.1910615E0,7.144007E-2,6.9221474E-2,6.0594227E-2,-2.8749065E0,2.104391E-1,-3.152118E0,1.5083992E0,1.1618556E0,1.6535927E0,9.2569315E-1,4.8113042E-1,1.1711272E0,1.4078141E0,3.8552177E-1,1.2465129E0,7.597644E-1,-1.2592275E0,1.5037496E-1,6.413277E-2,-8.209939E-1,7.3693806E-1,-2.8893337E-1,1.0714806E0,2.7496877E-1,4.734996E-1,-1.69934E-1,5.1134888E-5,-7.8354543E-1,2.189581E-1,-5.843838E-1,-1.1210837E0,-5.9298915E-1,-2.5657585E-1,-1.6251833E0,-1.7050428E0,-7.9913586E-1,6.001496E-1,-5.088962E-1,-9.6620226E-1,-2.0829134E0,-1.0740813E0,-5.371181E-1,-2.4347095E0,-1.7847522E0,-1.7838408E0,-9.48034E-1,-1.0870115E0,-2.1195562E0,-1.0230677E0,-1.7128168E-2,-1.9272221E0,-2.472407E0,-2.1584659E0,-2.6174219E0,-3.0294607E0,-2.6555572E0],"split_indices":[90,128,95,18,60,60,90,80,125,140,126,77,100,60,50,120,117,65,72,25,137,82,155,72,130,142,125,60,113,0,113,78,128,157,25,134,72,128,60,158,155,87,127,100,77,0,0,128,112,113,80,70,102,116,0,116,121,131,0,157,0,0,0,0,0,0,0,0,0,0,0,0,0,0,0,0,0,0,0,0,0,0,0,0,0,0,0,0,0,0,0,0,0,0,0,0,0,0,0,0,0,0,0,0,0,0,0,0,0,0,0],"split_type":[0,0,0,0,0,0,0,0,0,0,0,0,0,0,0,0,0,0,0,0,0,0,0,0,0,0,0,0,0,0,0,0,0,0,0,0,0,0,0,0,0,0,0,0,0,0,0,0,0,0,0,0,0,0,0,0,0,0,0,0,0,0,0,0,0,0,0,0,0,0,0,0,0,0,0,0,0,0,0,0,0,0,0,0,0,0,0,0,0,0,0,0,0,0,0,0,0,0,0,0,0,0,0,0,0,0,0,0,0,0,0],"sum_hessian":[1.311E4,9.555E3,3.555E3,8.605E3,9.5E2,1.43E3,2.125E3,4.498E3,4.107E3,3.22E2,6.28E2,9.48E2,4.82E2,9.53E2,1.172E3,2.491E3,2.007E3,2.95E3,1.157E3,1.78E2,1.44E2,5E2,1.28E2,7.34E2,2.14E2,3.14E2,1.68E2,3.46E2,6.07E2,5.77E2,5.95E2,1.537E3,9.54E2,8.24E2,1.183E3,2.64E3,3.1E2,6.51E2,5.06E2,1.2E2,5.8E1,6.9E1,7.5E1,2.22E2,2.78E2,6.4E1,6.4E1,3.65E2,3.69E2,1.98E2,1.6E1,2.89E2,2.5E1,1.19E2,4.9E1,1.3E1,3.33E2,3.77E2,2.3E2,2.45E2,3.5E2,1.344E3,1.93E2,9.47E2,7E0,3.07E2,5.17E2,1.106E3,7.7E1,1.358E3,1.282E3,4.7E1,2.63E2,3.2E2,3.31E2,4.16E2,9E1,9.6E1,2.4E1,1.8E1,4E1,1.6E1,5.3E1,5E1,2.5E1,1.39E2,8.3E1,8E0,2.7E2,2E2,1.65E2,8.4E1,2.85E2,1.2E1,1.86E2,1.1E1,5E0,1.84E2,1.05E2,5E0,2E1,1.05E2,1.4E1,8E0,5E0,1.91E2,1.42E2,1.44E2,2.33E2,1.08E2,1.37E2],"tree_param":{"num_deleted":"0","num_feature":"160","num_nodes":"111","size_leaf_vector":"1"}},{"base_weights":[-7.9129625E-4,1.6315298E1,-4.2659748E1,1.9594725E1,-1.6931744E1,-2.5017813E1,-5.454042E1,1.2754492E1,2.5984884E1,9.856108E-1,-2.942939E1,-1.7019646E1,-4.032128E1,-4.614082E1,-6.1915733E1,1.5990793E1,-4.154387E0,2.1133091E1,2.8934732E1,1.0138023E1,-8.710389E0,-2.5228796E1,-4.2342575E1,-2.615982E1,-6.464838E0,-3.6867085E1,-2.6015632E0,-4.326373E1,-5.677964E1,-5.834415E1,-3.3175504E0,9.9786156E-1,1.8222054E1,-1.1333469E1,1.4894298E1,2.85646E1,1.799833E1,2.9783854E1,2.405906E1,1.6114962E1,-4.2843035E-1,-1.0797327E1,5.092969E0,-1.6100464E1,-2.8576685E1,-1.9056581E0,-2.3699188E0,-3.2388172E1,-1.9853529E1,-1.6336166E1,2.3459399E0,-3.275857E1,-4.068367E1,-3.2756557E1,-4.534736E1,-2.573472E0,-2.9930785E0,-5.563745E1,-3.1053274E0,5.7842934E-1,-6.070747E-1,1.0971373E0,6.379606E-1,-7.972652E-1,3.2902712E-1,-1.044447E0,8.5420084E-1,1.4653057E0,2.948972E-1,1.0736738E0,5.456607E-1,1.3450898E0,1.5309843E0,1.2809601E0,-1.7864491E-1,9.853379E-1,1.5290846E-1,4.4022694E-1,-2.9582128E-1,-1.2073306E-1,-7.1598303E-1,5.681793E-1,1.2151523E-2,-4.4272357E-1,-1.0632476E0,-1.2954434E0,-1.7753819E0,-8.4027305E-2,-1.668578E0,-1.4766059E0,-6.146095E-1,-3.52256E-1,-1.2522442E0,-1.3527297E0,2.5969636E-1,-1.2263211E0,-1.8201939E0,-1.6535797E0,-2.2401426E0,-2.0877943E0,-1.3845918E0,-2.1214244E0,-2.4730024E0,-2.9110897E0,-2.5991476E0],"categories":[],"categories_nodes":[],"categories_segments":[],"categories_sizes":[],"default_left":[0,0,0,0,0,0,0,0,0,0,0,0,0,0,0,0,0,0,0,0,0,0,0,0,0,0,0,0,0,0,0,0,0,0,0,0,0,0,0,0,0,0,0,0,0,0,0,0,0,0,0,0,0,0,0,0,0,0,0,0,0,0,0,0,0,0,0,0,0,0,0,0,0,0,0,0,0,0,0,0,0,0,0,0,0,0,0,0,0,0,0,0,0,0,0,0,0,0,0,0,0,0,0,0,0],"id":4,"left_children":[1,3,5,7,9,11,13,15,17,19,21,23,25,27,29,31,33,35,37,39,41,43,45,47,49,51,-1,53,55,57,-1,59,61,63,65,67,69,71,73,75,77,79,81,83,85,-1,-1,87,89,91,93,95,97,99,101,-1,-1,103,-1,-1,-1,-1,-1,-1,-1,-1,-1,-1,-1,-1,-1,-1,-1,-1,-1,-1,-1,-1,-1,-1,-1,-1,-1,-1,-1,-1,-1,-1,-1,-1,-1,-1,-1,-1,-1,-1,-1,-1,-1,-1,-1,-1,-1,-1,-1],"loss_changes":[9.072023E6,1.02827825E6,7.544385E5,3.747855E5,1.896961E5,1.7715475E5,1.305715E5,2.2700069E5,6.287175E4,3.1059334E4,2.5992312E4,9.2055625E4,1.8216312E4,2.847925E4,1.42385E4,1.1643019E5,9.138208E4,3.8641812E4,1.0688E4,1.1376381E4,4.952709E3,1.1117922E4,7.722969E2,1.9461969E4,3.8743188E4,4.7439375E3,0E0,1.6021E4,3.773125E2,3.0705E3,0E0,6.2919805E4,6.1303E4,4.0174832E4,1.4695492E4,8.1770312E3,2.8939281E4,4.814625E3,1.7941188E4,5.3306543E3,3.3960552E3,4.3336777E3,6.955561E2,3.7005703E3,4.1772656E3,0E0,0E0,7.671E3,1.844086E4,1.6812102E4,1.9899168E4,4.8627344E3,4.6875625E3,5.0355156E3,5.87525E3,0E0,0E0,5.7975E2,0E0,0E0,0E0,0E0,0E0,0E0,0E0,0E0,0E0,0E0,0E0,0E0,0E0,0E0,0E0,0E0,0E0,0E0,0E0,0E0,0E0,0E0,0E0,0E0,0E0,0E0,0E0,0E0,0E0,0E0,0E0,0E0,0E0,0E0,0E0,0E0,0E0,0E0,0E0,0E0,0E0,0E0,0E0,0E0,0E0,0E0,0E0],"parents":[2147483647,0,0,1,1,2,2,3,3,4,4,5,5,6,6,7,7,8,8,9,9,10,10,11,11,12,12,13,13,14,14,15,15,16,16,17,17,18,18,19,19,20,20,21,21,22,22,23,23,24,24,25,25,27,27,28,28,29,29,31,31,32,32,33,33,34,34,35,35,36,36,37,37,38,38,39,39,40,40,41,41,42,42,43,43,44,44,47,47,48,48,49,49,50,50,51,51,52,52,53,53,54,54,57,57],"right_children":[2,4,6,8,10,12,14,16,18,20,22,24,26,28,30,32,34,36,38,40,42,44,46,48,50,52,-1,54,56,58,-1,60,62,64,66,68,70,72,74,76,78,80,82,84,86,-1,-1,88,90,92,94,96,98,100,102,-1,-1,104,-1,-1,-1,-1,-1,-1,-1,-1,-1,-1,-1,-1,-1,-1,-1,-1,-1,-1,-1,-1,-1,-1,-1,-1,-1,-1,-1,-1,-1,-1,-1,-1,-1,-1,-1,-1,-1,-1,-1,-1,-1,-1,-1,-1,-1,-1,-1],"split_conditions":[5.077144E-1,2.6281074E-1,5.5714285E-1,4.651163E-1,3.8428167E-1,1.9864489E-1,6.4166665E-1,2.2489455E-1,6.4821875E-1,3.5313582E-1,3.1510092E-2,3.7739873E-1,3.362315E-2,3.3464956E-1,6.892857E-1,3.9130434E-1,5.426731E-1,7.0542634E-1,3.75E-1,2.5655568E-1,8.294243E-1,4.0376064E-1,3.9297007E-2,3.255814E-1,3.9774558E-1,6.231884E-1,-2.6015632E0,5.66239E-1,4.440456E-1,2.81881E-1,-3.3175504E0,3.7359098E-1,2.9761905E-2,7.3773986E-1,9.810334E-2,2.424392E-1,2.8703347E-1,5.942029E-1,2.4315713E-1,8.602596E-1,6.482602E-1,2.0430934E-1,6.491486E-2,4.863124E-1,5.0404E-1,-1.9056581E0,-2.3699188E0,5.827338E-1,1.7522211E-1,4.9246064E-1,2.9761904E-1,1.9904873E-1,3.75E-1,4.989339E-1,6.768806E-2,-2.573472E0,-2.9930785E0,3.4477612E-1,-3.1053274E0,5.7842934E-1,-6.070747E-1,1.0971373E0,6.379606E-1,-7.972652E-1,3.2902712E-1,-1.044447E0,8.5420084E-1,1.4653057E0,2.948972E-1,1.0736738E0,5.456607E-1,1.3450898E0,1.5309843E0,1.2809601E0,-1.7864491E-1,9.853379E-1,1.5290846E-1,4.4022694E-1,-2.9582128E-1,-1.2073306E-1,-7.1598303E-1,5.681793E-1,1.2151523E-2,-4.4272357E-1,-1.0632476E0,-1.2954434E0,-1.7753819E0,-8.4027305E-2,-1.668578E0,-1.4766059E0,-6.146095E-1,-3.52256E-1,-1.2522442E0,-1.3527297E0,2.5969636E-1,-1.2263211E0,-1.8201939E0,-1.6535797E0,-2.2401426E0,-2.0877943E0,-1.3845918E0,-2.1214244E0,-2.4730024E0,-2.9110897E0,-2.5991476E0],"split_indices":[65,78,30,102,110,77,30,78,105,140,126,137,126,27,80,122,72,153,83,25,88,110,126,102,72,123,0,15,3,78,0,122,134,88,62,78,92,72,28,158,155,142,131,122,40,0,0,113,78,155,132,127,82,38,131,0,0,85,0,0,0,0,0,0,0,0,0,0,0,0,0,0,0,0,0,0,0,0,0,0,0,0,0,0,0,0,0,0,0,0,0,0,0,0,0,0,0,0,0,0,0,0,0,0,0],"split_type":[0,0,0,0,0,0,0,0,0,0,0,0,0,0,0,0,0,0,0,0,0,0,0,0,0,0,0,0,0,0,0,0,0,0,0,0,0,0,0,0,0,0,0,0,0,0,0,0,0,0,0,0,0,0,0,0,0,0,0,0,0,0,0,0,0,0,0,0,0,0,0,0,0,0,0,0,0,0,0,0,0,0,0,0,0,0,0,0,0,0,0,0,0,0,0,0,0,0,0,0,0,0,0,0,0],"sum_hessian":[1.3032E4,9.427E3,3.605E3,8.581E3,8.46E2,1.452E3,2.153E3,4.146E3,4.435E3,3.48E2,4.98E2,9.55E2,4.97E2,1.01E3,1.143E3,3.48E3,6.66E2,1.68E3,2.755E3,1.79E2,1.69E2,3.78E2,1.2E2,5.11E2,4.44E2,3.87E2,1.1E2,7.99E2,2.11E2,6.41E2,5.02E2,4.51E2,3.029E3,4.84E2,1.82E2,4.96E2,1.184E3,2.342E3,4.13E2,1.14E2,6.5E1,1.47E2,2.2E1,1.03E2,2.75E2,7E1,5E1,2.55E2,2.56E2,2.09E2,2.35E2,1.91E2,1.96E2,1.35E2,6.64E2,8.4E1,1.27E2,3.82E2,2.59E2,2.5E2,2.01E2,1.8E3,1.229E3,3.85E2,9.9E1,1E1,1.72E2,4.8E2,1.6E1,7.93E2,3.91E2,5.34E2,1.808E3,3.91E2,2.2E1,8.9E1,2.5E1,2.4E1,4.1E1,4.4E1,1.03E2,9E0,1.3E1,4.4E1,5.9E1,2.02E2,7.3E1,8E0,2.47E2,1.11E2,1.45E2,1.02E2,1.07E2,2E1,2.15E2,6.1E1,1.3E2,7.2E1,1.24E2,4.6E1,8.9E1,3.95E2,2.69E2,2.15E2,1.67E2],"tree_param":{"num_deleted":"0","num_feature":"160","num_nodes":"105","size_leaf_vector":"1"}},{"base_weights":[9.3667954E-2,1.4968144E1,-4.1314236E1,1.8098007E1,-1.8087051E1,-2.7997923E1,-5.470663E1,2.445582E1,1.1217695E1,2.2971791E-1,-2.8534758E1,-2.1975718E1,-4.0624565E1,-4.8468895E1,-6.0767464E1,2.025636E1,2.7865751E1,1.6039438E1,-8.0615395E-1,9.240212E0,-8.435051E0,-2.4944307E1,-4.081545E1,-2.914224E1,-9.495034E0,-3.7801674E1,-2.5518625E0,-4.404433E1,-5.1701744E1,-3.1878054E0,-2.8558042E0,2.1765768E1,8.979009E0,2.9544064E1,2.5928295E1,1.8151978E1,-2.6216292E0,1.0339102E1,-7.989372E0,1.6034235E1,-1.216391E0,-5.217487E0,-1.7633047E1,-1.8332035E1,-2.8775179E1,-1.8005427E0,-2.2125704E0,-3.351187E1,-2.0356297E1,-3.442948E1,-6.7283435E0,-4.2365795E1,-3.3597595E1,-4.1060596E1,-2.6484442E0,-5.0138783E1,-2.8543234E0,1.2411476E0,8.5526735E-1,-3.690598E-1,7.464211E-1,9.131381E-1,1.4798836E0,1.3068889E0,-4.0472004E-1,6.4337885E-1,1.1441165E0,2.6453698E-1,-1.3910798E0,7.4114805E-1,5.085206E-2,-1.161018E-2,-7.668697E-1,1.2559193E0,4.814864E-1,3.6297375E-1,-2.6618654E-1,-4.5841622E-1,1.6173679E-1,-1.0086182E0,-4.5477724E-1,-1.0568608E0,-2.7058443E-1,-1.2681762E0,-1.6378253E0,-1.3916068E0,-1.8682063E0,-1.0633136E-1,-1.174157E0,-4.3991595E-3,-1.9471577E0,-2.3706858E-1,-2.0753176E0,-2.2397878E0,-1.4466625E0,-6.1683935E-1,-1.7338114E0,-2.1534956E0,-1.6999228E0,-2.310178E0,-2.617349E0],"categories":[],"categories_nodes":[],"categories_segments":[],"categories_sizes":[],"default_left":[0,0,0,0,0,0,0,0,0,0,0,0,0,0,0,0,0,0,0,0,0,0,0,0,0,0,0,0,0,0,0,0,0,0,0,0,0,0,0,0,0,0,0,0,0,0,0,0,0,0,0,0,0,0,0,0,0,0,0,0,0,0,0,0,0,0,0,0,0,0,0,0,0,0,0,0,0,0,0,0,0,0,0,0,0,0,0,0,0,0,0,0,0,0,0,0,0,0,0,0,0],"id":5,"left_children":[1,3,5,7,9,11,13,15,17,19,21,23,25,27,29,31,33,35,37,39,41,43,45,47,49,51,-1,53,55,-1,-1,57,59,61,63,65,67,69,71,73,75,77,79,81,83,-1,-1,85,87,89,91,93,95,97,-1,99,-1,-1,-1,-1,-1,-1,-1,-1,-1,-1,-1,-1,-1,-1,-1,-1,-1,-1,-1,-1,-1,-1,-1,-1,-1,-1,-1,-1,-1,-1,-1,-1,-1,-1,-1,-1,-1,-1,-1,-1,-1,-1,-1,-1,-1],"loss_changes":[8.0962795E6,1.000872E6,6.18004E5,3.86198E5,1.601846E5,1.3171512E5,6.24855E4,6.517325E4,2.4612225E5,2.3890545E4,2.2477E4,1.0553069E5,1.4581125E4,9.986125E3,5.88425E3,3.4884125E4,7.45825E3,1.1949844E5,9.743387E4,1.0677346E4,4.5225566E3,9.980016E3,3.629375E2,2.8144312E4,2.9635129E4,7.1268125E3,0E0,7.6415625E3,1.250875E3,0E0,0E0,2.5459375E4,2.395768E4,2.70625E2,8.6448125E3,6.7744125E4,6.1761395E4,1.9921363E4,4.2174758E4,5.0489766E3,2.1272495E3,3.9372732E3,6.8077246E2,5.5007695E3,2.7085156E3,0E0,0E0,9.8934375E3,1.4311828E4,6.6579375E3,2.6817818E4,5.5510625E3,5.0025625E3,2.5154062E3,0E0,9.43125E2,0E0,0E0,0E0,0E0,0E0,0E0,0E0,0E0,0E0,0E0,0E0,0E0,0E0,0E0,0E0,0E0,0E0,0E0,0E0,0E0,0E0,0E0,0E0,0E0,0E0,0E0,0E0,0E0,0E0,0E0,0E0,0E0,0E0,0E0,0E0,0E0,0E0,0E0,0E0,0E0,0E0,0E0,0E0,0E0,0E0],"parents":[2147483647,0,0,1,1,2,2,3,3,4,4,5,5,6,6,7,7,8,8,9,9,10,10,11,11,12,12,13,13,14,14,15,15,16,16,17,17,18,18,19,19,20,20,21,21,22,22,23,23,24,24,25,25,27,27,28,28,31,31,32,32,33,33,34,34,35,35,36,36,37,37,38,38,39,39,40,40,41,41,42,42,43,43,44,44,47,47,48,48,49,49,50,50,51,51,52,52,53,53,55,55],"right_children":[2,4,6,8,10,12,14,16,18,20,22,24,26,28,30,32,34,36,38,40,42,44,46,48,50,52,-1,54,56,-1,-1,58,60,62,64,66,68,70,72,74,76,78,80,82,84,-1,-1,86,88,90,92,94,96,98,-1,100,-1,-1,-1,-1,-1,-1,-1,-1,-1,-1,-1,-1,-1,-1,-1,-1,-1,-1,-1,-1,-1,-1,-1,-1,-1,-1,-1,-1,-1,-1,-1,-1,-1,-1,-1,-1,-1,-1,-1,-1,-1,-1,-1,-1,-1],"split_conditions":[5.208305E-1,2.6653504E-1,6.026502E-1,4.6995273E-1,3.8428167E-1,2.3179574E-1,6.8811613E-1,6.3410854E-1,1.7629005E-1,3.5313582E-1,3.242758E-2,3.816631E-1,4.3556494E-1,6.1785716E-1,3.0620155E-1,2.3575339E-1,2.2589286E-1,4.9980763E-1,4.209696E-1,2.4926187E-1,2.7434263E-1,4.1605625E-1,4.2918637E-1,5.714286E-1,2.9761904E-1,4.750533E-1,-2.5518625E0,3.362315E-2,7.705679E-2,-3.1878054E0,-2.8558042E0,2.3809524E-2,5.837209E-1,4.7735432E-1,3.5771236E-2,-6.3965884E-3,7.451656E-2,3.0357143E-1,2.2677915E-1,4.663332E-1,6.482602E-1,8.615141E-2,4.686023E-1,2.6509702E-1,4.4880953E-1,-1.8005427E0,-2.2125704E0,6.1145667E-2,5.8752996E-1,6.5533124E-2,7.2316E-1,4.4047618E-1,5.668277E-1,3.6886993E-1,-2.6484442E0,1.8998347E-2,-2.8543234E0,1.2411476E0,8.5526735E-1,-3.690598E-1,7.464211E-1,9.131381E-1,1.4798836E0,1.3068889E0,-4.0472004E-1,6.4337885E-1,1.1441165E0,2.6453698E-1,-1.3910798E0,7.4114805E-1,5.085206E-2,-1.161018E-2,-7.668697E-1,1.2559193E0,4.814864E-1,3.6297375E-1,-2.6618654E-1,-4.5841622E-1,1.6173679E-1,-1.0086182E0,-4.5477724E-1,-1.0568608E0,-2.7058443E-1,-1.2681762E0,-1.6378253E0,-1.3916068E0,-1.8682063E0,-1.0633136E-1,-1.174157E0,-4.3991595E-3,-1.9471577E0,-2.3706858E-1,-2.0753176E0,-2.2397878E0,-1.4466625E0,-6.1683935E-1,-1.7338114E0,-2.1534956E0,-1.6999228E0,-2.310178E0,-2.617349E0],"split_indices":[15,78,65,18,110,125,15,100,125,140,126,137,28,30,100,78,130,90,90,125,27,110,115,88,132,35,0,126,121,0,0,134,100,107,26,139,121,32,78,143,155,156,18,112,30,0,0,131,113,146,68,132,123,37,0,126,0,0,0,0,0,0,0,0,0,0,0,0,0,0,0,0,0,0,0,0,0,0,0,0,0,0,0,0,0,0,0,0,0,0,0,0,0,0,0,0,0,0,0,0,0],"split_type":[0,0,0,0,0,0,0,0,0,0,0,0,0,0,0,0,0,0,0,0,0,0,0,0,0,0,0,0,0,0,0,0,0,0,0,0,0,0,0,0,0,0,0,0,0,0,0,0,0,0,0,0,0,0,0,0,0,0,0,0,0,0,0,0,0,0,0,0,0,0,0,0,0,0,0,0,0,0,0,0,0,0,0,0,0,0,0,0,0,0,0,0,0,0,0,0,0,0,0,0,0],"sum_hessian":[1.3143E4,9.67E3,3.473E3,8.834E3,8.36E2,1.743E3,1.73E3,4.59E3,4.244E3,3.04E2,5.32E2,1.182E3,5.61E2,8.57E2,8.73E2,2.06E3,2.53E3,3.029E3,1.215E3,1.49E2,1.55E2,4.14E2,1.18E2,7.5E2,4.32E2,4.45E2,1.16E2,3.68E2,4.89E2,4.71E2,4.02E2,1.816E3,2.44E2,1.348E3,1.182E3,2.721E3,3.08E2,4.76E2,7.39E2,9E1,5.9E1,1.16E2,3.9E1,1.54E2,2.6E2,5.4E1,6.4E1,4.99E2,2.51E2,4.2E1,3.9E2,2.09E2,2.36E2,2.8E2,8.8E1,3.87E2,1.02E2,1.094E3,7.22E2,6.5E1,1.79E2,8E0,1.34E3,1.175E3,7E0,1.287E3,1.434E3,2.35E2,7.3E1,3.21E2,1.55E2,3.6E2,3.79E2,3.6E1,5.4E1,1.9E1,4E1,7.9E1,3.7E1,2.9E1,1E1,1.26E2,2.8E1,1.44E2,1.16E2,2.05E2,2.94E2,3.7E1,2.14E2,5E0,3.7E1,3.7E2,2E1,1.75E2,3.4E1,1.2E1,2.24E2,2.14E2,6.6E1,1.47E2,2.4E2],"tree_param":{"num_deleted":"0","num_feature":"160","num_nodes":"101","size_leaf_vector":"1"}},{"base_weights":[-6.1849657E-2,1.4337267E1,-3.8856075E1,1.761399E1,-1.4928211E1,-2.4943668E1,-5.092481E1,2.1441776E1,7.5497837E0,3.4492595E0,-2.46666E1,-1.8315668E1,-3.9442856E1,-4.462151E1,-5.726787E1,1.8270243E1,2.7038393E1,1.2216504E1,-5.485443E0,1.8346169E1,-1.5099112E0,-2.1552418E1,-3.7074276E1,-2.4836475E1,-7.083787E0,-3.4370945E1,-4.5342823E1,-4.2335484E1,-2.6861033E0,-2.681123E0,-2.9979515E0,1.985216E1,6.2579193E0,2.2492266E1,2.7594711E1,-3.154274E0,1.6025576E1,3.9011657E0,-1.3991734E1,2.2943024E1,1.6492364E0,3.3175385E0,-9.289544E0,-1.51081705E1,-2.6902325E1,-1.6328083E0,-2.035222E0,-2.8903364E1,-1.5042569E1,-9.310706E0,1.5635561E0,-3.509417E1,-1.0119051E0,-2.0999541E0,-2.5112522E0,-4.496612E1,-3.6779373E1,8.006682E-1,1.1745487E0,-3.9499417E-1,8.714296E-1,3.6120874E-1,1.186085E0,1.4224056E0,1.3079698E0,-5.65767E-1,4.6590567E-1,9.166895E-1,-1.5097336E-1,-5.0992336E-2,9.9025023E-1,9.111798E-3,-9.616858E-1,1.2427853E0,5.642397E-1,4.6735263E-1,-1.3074566E-1,3.9519155E-1,-1.411362E-1,2.7629584E-2,-6.382138E-1,-8.88666E-1,-3.352822E-1,-1.4476494E0,-9.123005E-1,-1.2021966E0,-1.7295526E0,9.8949856E-1,-8.5289043E-1,4.3338308E-1,-6.6170454E-1,-1.4305062E0,-1.8405942E0,-1.04032E0,-2.2677648E0,-1.9584818E0,-1.3554388E0],"categories":[],"categories_nodes":[],"categories_segments":[],"categories_sizes":[],"default_left":[0,0,0,0,0,0,0,0,0,0,0,0,0,0,0,0,0,0,0,0,0,0,0,0,0,0,0,0,0,0,0,0,0,0,0,0,0,0,0,0,0,0,0,0,0,0,0,0,0,0,0,0,0,0,0,0,0,0,0,0,0,0,0,0,0,0,0,0,0,0,0,0,0,0,0,0,0,0,0,0,0,0,0,0,0,0,0,0,0,0,0,0,0,0,0,0,0],"id":6,"left_children":[1,3,5,7,9,11,13,15,17,19,21,23,25,27,29,31,33,35,37,39,41,43,45,47,49,51,53,55,-1,-1,-1,57,59,61,63,65,67,69,71,73,75,77,79,81,83,-1,-1,85,87,89,-1,91,-1,-1,-1,93,95,-1,-1,-1,-1,-1,-1,-1,-1,-1,-1,-1,-1,-1,-1,-1,-1,-1,-1,-1,-1,-1,-1,-1,-1,-1,-1,-1,-1,-1,-1,-1,-1,-1,-1,-1,-1,-1,-1,-1,-1],"loss_changes":[7.2679785E6,9.1020975E5,5.90084E5,3.2859575E5,1.7117961E5,1.5668462E5,7.28005E4,1.0923125E5,1.4320484E5,2.4556324E4,2.3344938E4,8.229016E4,1.3784625E4,1.748E4,5.956E3,7.4914125E4,5.02425E3,1.01516234E5,4.9639473E4,6.3302324E3,9.420362E3,1.689636E4,6.521719E2,2.7920312E4,3.5735465E4,2.1461562E3,1.7014062E3,9.50475E3,0E0,0E0,0E0,4.83565E4,7.3046805E4,4.499539E3,1.683E3,3.522249E4,6.1117312E4,2.318792E4,2.4227102E4,1.1652969E3,6.4878314E2,4.3877793E3,3.2913584E3,5.0289844E3,4.3130938E3,0E0,0E0,1.3037156E4,1.5148637E4,2.7835836E4,0E0,1.89175E3,0E0,0E0,0E0,3.8824375E3,4.7334688E3,0E0,0E0,0E0,0E0,0E0,0E0,0E0,0E0,0E0,0E0,0E0,0E0,0E0,0E0,0E0,0E0,0E0,0E0,0E0,0E0,0E0,0E0,0E0,0E0,0E0,0E0,0E0,0E0,0E0,0E0,0E0,0E0,0E0,0E0,0E0,0E0,0E0,0E0,0E0,0E0],"parents":[2147483647,0,0,1,1,2,2,3,3,4,4,5,5,6,6,7,7,8,8,9,9,10,10,11,11,12,12,13,13,14,14,15,15,16,16,17,17,18,18,19,19,20,20,21,21,22,22,23,23,24,24,25,25,26,26,27,27,31,31,32,32,33,33,34,34,35,35,36,36,37,37,38,38,39,39,40,40,41,41,42,42,43,43,44,44,47,47,48,48,49,49,51,51,55,55,56,56],"right_children":[2,4,6,8,10,12,14,16,18,20,22,24,26,28,30,32,34,36,38,40,42,44,46,48,50,52,54,56,-1,-1,-1,58,60,62,64,66,68,70,72,74,76,78,80,82,84,-1,-1,86,88,90,-1,92,-1,-1,-1,94,96,-1,-1,-1,-1,-1,-1,-1,-1,-1,-1,-1,-1,-1,-1,-1,-1,-1,-1,-1,-1,-1,-1,-1,-1,-1,-1,-1,-1,-1,-1,-1,-1,-1,-1,-1,-1,-1,-1,-1,-1],"split_conditions":[5.0577146E-1,2.6281074E-1,5.738095E-1,4.25E-1,3.8467407E-1,1.970744E-1,6.6309524E-1,6.4573646E-1,1.8016692E-1,4.663332E-1,3.071845E-2,3.8808373E-1,3.3197522E-1,3.5331598E-1,6.799538E-1,2.0577043E-1,5.603865E-1,3.9130434E-1,1.770045E-2,5.271318E-1,2.4278569E-1,3.0357143E-1,3.8745672E-1,3.944563E-1,4.814815E-1,4.5833334E-1,4.1324284E-2,3.3172303E-1,-2.6861033E0,-2.681123E0,-2.9979515E0,0E0,5.394525E-1,1.6666667E-1,2.2431123E-1,3.9560896E-1,4.1509116E-1,3.4551752E-1,5.644479E-1,8.720682E-1,3.1205267E-1,6.0702685E-2,2.7397028E-1,7.51938E-1,3.5475183E-1,-1.6328083E0,-2.035222E0,6.1030596E-1,5.7883185E-1,2.4569435E-1,1.5635561E0,4.8214287E-1,-1.0119051E0,-2.0999541E0,-2.5112522E0,6.0911274E-1,4.663332E-1,8.006682E-1,1.1745487E0,-3.9499417E-1,8.714296E-1,3.6120874E-1,1.186085E0,1.4224056E0,1.3079698E0,-5.65767E-1,4.6590567E-1,9.166895E-1,-1.5097336E-1,-5.0992336E-2,9.9025023E-1,9.111798E-3,-9.616858E-1,1.2427853E0,5.642397E-1,4.6735263E-1,-1.3074566E-1,3.9519155E-1,-1.411362E-1,2.7629584E-2,-6.382138E-1,-8.88666E-1,-3.352822E-1,-1.4476494E0,-9.123005E-1,-1.2021966E0,-1.7295526E0,9.8949856E-1,-8.5289043E-1,4.3338308E-1,-6.6170454E-1,-1.4305062E0,-1.8405942E0,-1.04032E0,-2.2677648E0,-1.9584818E0,-1.3554388E0],"split_indices":[90,128,30,95,60,127,30,150,75,143,126,122,25,27,90,25,122,122,126,152,142,82,42,87,122,132,126,72,0,0,0,139,122,147,128,107,67,142,143,138,15,136,67,153,142,0,0,123,118,112,0,30,0,0,0,113,142,0,0,0,0,0,0,0,0,0,0,0,0,0,0,0,0,0,0,0,0,0,0,0,0,0,0,0,0,0,0,0,0,0,0,0,0,0,0,0,0],"split_type":[0,0,0,0,0,0,0,0,0,0,0,0,0,0,0,0,0,0,0,0,0,0,0,0,0,0,0,0,0,0,0,0,0,0,0,0,0,0,0,0,0,0,0,0,0,0,0,0,0,0,0,0,0,0,0,0,0,0,0,0,0,0,0,0,0,0,0,0,0,0,0,0,0,0,0,0,0,0,0,0,0,0,0,0,0,0,0,0,0,0,0,0,0,0,0,0,0],"sum_hessian":[1.3009E4,9.488E3,3.521E3,8.533E3,9.55E2,1.637E3,1.884E3,6.181E3,2.352E3,3.31E2,6.24E2,1.125E3,5.12E2,9.49E2,9.35E2,3.948E3,2.233E3,1.732E3,6.2E2,8.2E1,2.49E2,5.01E2,1.23E2,7.11E2,4.14E2,2.79E2,2.33E2,7.63E2,1.86E2,4.06E2,5.29E2,3.488E3,4.6E2,2.48E2,1.985E3,3.44E2,1.388E3,2.95E2,3.25E2,6.4E1,1.8E1,1.54E2,9.5E1,2.29E2,2.72E2,6E1,6.3E1,5.01E2,2.1E2,3.92E2,2.2E1,2.64E2,1.5E1,1.44E2,8.9E1,5.13E2,2.5E2,1.7E3,1.788E3,2.03E2,2.57E2,1.9E1,2.29E2,1.233E3,7.52E2,2.08E2,1.36E2,1.238E3,1.5E2,2.26E2,6.9E1,8.8E1,2.37E2,5.4E1,1E1,6E0,1.2E1,8.8E1,6.6E1,2.5E1,7E1,1.73E2,5.6E1,2.18E2,5.4E1,2.73E2,2.28E2,1.1E1,1.99E2,7E1,3.22E2,5.9E1,2.05E2,9E0,5.04E2,1.98E2,5.2E1],"tree_param":{"num_deleted":"0","num_feature":"160","num_nodes":"97","size_leaf_vector":"1"}},{"base_weights":[-2.3860247E-1,1.31824875E1,-3.8191227E1,1.623841E1,-1.475645E1,-2.690175E1,-5.017811E1,2.0416975E1,6.87937E0,-1.6199481E-1,-2.590376E1,-2.0302065E1,-3.8350502E1,-4.4887E1,-5.5258938E1,1.7221926E1,2.5538397E1,1.1638407E1,-6.538988E0,8.13656E0,-9.124125E0,-2.2302727E1,-3.5251434E1,-1.0142379E1,-2.7545565E1,-3.5168015E1,-4.6314075E1,-4.310938E1,-2.6905684E0,-2.5834997E0,-2.8645687E0,2.0911766E1,1.1529367E1,2.6139303E1,2.2261862E1,-8.2881755E-1,1.5361299E1,1.1070358E1,-1.1341473E1,1.2857854E1,-4.0693116E0,1.8205616E0,-1.1958419E1,-1.7134697E1,-2.6935518E1,-1.3755673E0,-3.7934143E1,-7.4977303E0,-2.8043434E1,-3.4537487E1,-2.31721E1,-3.0715528E1,-3.7871986E1,-2.1717758E0,-2.5281072E0,-4.4815495E1,-3.729252E1,1.207927E0,7.66617E-1,9.503034E-1,4.438482E-1,1.0750978E0,1.3230435E0,1.148717E0,-3.312314E-2,-1.1753321E0,2.7766624E-1,8.431385E-1,-2.616322E-1,2.9241714E-1,1.4860505E0,-8.692589E-2,-8.2413644E-1,1.009676E0,3.9017734E-1,4.9950603E-2,-4.2015052E-1,5.325622E-1,-1.7380796E-1,-2.1891749E-1,-7.4098384E-1,-1.0193113E0,-4.8115465E-1,-1.5099789E0,-1.1621097E0,-1.7143253E0,-2.096834E0,-7.61959E-1,-7.755267E-2,-1.5830485E0,1.9275877E-1,-1.76305E0,-5.617265E-1,-1.2084044E0,5.767574E-1,-1.3936852E0,-1.9341261E0,-1.9896992E0,-1.563856E0,-2.2535346E0,-9.702612E-1,-1.6394984E0,-2.2297723E0],"categories":[],"categories_nodes":[],"categories_segments":[],"categories_sizes":[],"default_left":[0,0,0,0,0,0,0,0,0,0,0,0,0,0,0,0,0,0,0,0,0,0,0,0,0,0,0,0,0,0,0,0,0,0,0,0,0,0,0,0,0,0,0,0,0,0,0,0,0,0,0,0,0,0,0,0,0,0,0,0,0,0,0,0,0,0,0,0,0,0,0,0,0,0,0,0,0,0,0,0,0,0,0,0,0,0,0,0,0,0,0,0,0,0,0,0,0,0,0,0,0,0,0],"id":7,"left_children":[1,3,5,7,9,11,13,15,17,19,21,23,25,27,29,31,33,35,37,39,41,43,45,47,49,51,53,55,-1,-1,-1,57,59,61,63,65,67,69,71,73,75,77,79,81,83,-1,85,87,89,91,93,95,97,-1,-1,99,101,-1,-1,-1,-1,-1,-1,-1,-1,-1,-1,-1,-1,-1,-1,-1,-1,-1,-1,-1,-1,-1,-1,-1,-1,-1,-1,-1,-1,-1,-1,-1,-1,-1,-1,-1,-1,-1,-1,-1,-1,-1,-1,-1,-1,-1,-1],"loss_changes":[6.681854E6,8.276501E5,4.624035E5,3.414985E5,1.5552377E5,1.3272688E5,4.216225E4,9.8373E4,1.7236673E5,3.0939023E4,1.7452469E4,8.236031E4,1.47099375E4,1.06635E4,3.17825E3,7.7934875E4,3.977125E3,9.247116E4,5.9915594E4,1.250074E4,6.226877E3,8.967359E3,2.0437344E3,2.1989578E4,1.9223156E4,4.4281875E3,7.71875E0,5.148375E3,0E0,0E0,0E0,4.0511562E4,2.8901078E4,2.338625E3,5.9953594E3,6.656483E4,4.752247E4,1.462651E4,2.7419945E4,5.623586E3,1.3489751E3,2.0022365E3,3.38167E3,4.416992E3,1.7761406E3,0E0,1.3129688E2,1.8849406E4,7.0485E3,3.8141875E3,1.4314641E4,3.0131094E3,2.3607188E3,0E0,0E0,2.536375E3,3.8568281E3,0E0,0E0,0E0,0E0,0E0,0E0,0E0,0E0,0E0,0E0,0E0,0E0,0E0,0E0,0E0,0E0,0E0,0E0,0E0,0E0,0E0,0E0,0E0,0E0,0E0,0E0,0E0,0E0,0E0,0E0,0E0,0E0,0E0,0E0,0E0,0E0,0E0,0E0,0E0,0E0,0E0,0E0,0E0,0E0,0E0,0E0],"parents":[2147483647,0,0,1,1,2,2,3,3,4,4,5,5,6,6,7,7,8,8,9,9,10,10,11,11,12,12,13,13,14,14,15,15,16,16,17,17,18,18,19,19,20,20,21,21,22,22,23,23,24,24,25,25,26,26,27,27,31,31,32,32,33,33,34,34,35,35,36,36,37,37,38,38,39,39,40,40,41,41,42,42,43,43,44,44,46,46,47,47,48,48,49,49,50,50,51,51,52,52,55,55,56,56],"right_children":[2,4,6,8,10,12,14,16,18,20,22,24,26,28,30,32,34,36,38,40,42,44,46,48,50,52,54,56,-1,-1,-1,58,60,62,64,66,68,70,72,74,76,78,80,82,84,-1,86,88,90,92,94,96,98,-1,-1,100,102,-1,-1,-1,-1,-1,-1,-1,-1,-1,-1,-1,-1,-1,-1,-1,-1,-1,-1,-1,-1,-1,-1,-1,-1,-1,-1,-1,-1,-1,-1,-1,-1,-1,-1,-1,-1,-1,-1,-1,-1,-1,-1,-1,-1,-1,-1],"split_conditions":[5.1804525E-1,2.6281074E-1,5.940476E-1,5.5283594E-1,3.9332896E-1,2.7165037E-1,6.738095E-1,6.395349E-1,1.8016692E-1,3.609465E-1,3.7175804E-1,5.1785713E-1,3.362315E-2,3.6879656E-1,7.0714283E-1,2.9761905E-2,3.181803E-1,3.9130434E-1,3.030047E-1,2.2974065E-1,6.893085E-2,5.119048E-1,3.75E-1,8.069799E-2,4.272921E-1,3.6581644E-1,5.1772103E-2,3.3172303E-1,-2.6905684E0,-2.5834997E0,-2.8645687E0,1.7699115E-2,1.832092E-1,5.5233496E-1,2.586377E-1,4.1791046E-1,4.2116812E-1,7.51938E-1,2.2314458E-1,4.663332E-1,2.550929E-1,7.5479746E-1,5.1288956E-1,6.663831E-2,3.5658914E-1,-1.3755673E0,4.8640403E-1,3.7739873E-1,6.63113E-1,4.8550725E-1,7.100213E-1,6.4285713E-1,3.9774558E-1,-2.1717758E0,-2.5281072E0,4.4743165E-1,6.96541E-2,1.207927E0,7.66617E-1,9.503034E-1,4.438482E-1,1.0750978E0,1.3230435E0,1.148717E0,-3.312314E-2,-1.1753321E0,2.7766624E-1,8.431385E-1,-2.616322E-1,2.9241714E-1,1.4860505E0,-8.692589E-2,-8.2413644E-1,1.009676E0,3.9017734E-1,4.9950603E-2,-4.2015052E-1,5.325622E-1,-1.7380796E-1,-2.1891749E-1,-7.4098384E-1,-1.0193113E0,-4.8115465E-1,-1.5099789E0,-1.1621097E0,-1.7143253E0,-2.096834E0,-7.61959E-1,-7.755267E-2,-1.5830485E0,1.9275877E-1,-1.76305E0,-5.617265E-1,-1.2084044E0,5.767574E-1,-1.3936852E0,-1.9341261E0,-1.9896992E0,-1.563856E0,-2.2535346E0,-9.702612E-1,-1.6394984E0,-2.2297723E0],"split_indices":[65,128,30,118,110,128,30,100,75,140,28,30,126,77,30,134,65,122,67,77,146,83,80,121,35,62,126,72,0,0,0,144,128,122,128,37,67,153,128,143,27,138,143,81,152,0,28,137,88,70,138,83,72,0,0,105,131,0,0,0,0,0,0,0,0,0,0,0,0,0,0,0,0,0,0,0,0,0,0,0,0,0,0,0,0,0,0,0,0,0,0,0,0,0,0,0,0,0,0,0,0,0,0],"split_type":[0,0,0,0,0,0,0,0,0,0,0,0,0,0,0,0,0,0,0,0,0,0,0,0,0,0,0,0,0,0,0,0,0,0,0,0,0,0,0,0,0,0,0,0,0,0,0,0,0,0,0,0,0,0,0,0,0,0,0,0,0,0,0,0,0,0,0,0,0,0,0,0,0,0,0,0,0,0,0,0,0,0,0,0,0,0,0,0,0,0,0,0,0,0,0,0,0,0,0,0,0,0,0],"sum_hessian":[1.3116E4,9.69E3,3.426E3,8.735E3,9.55E2,1.766E3,1.66E3,6.038E3,2.697E3,4.14E2,5.41E2,1.122E3,6.44E2,8.18E2,8.42E2,3.721E3,2.317E3,1.991E3,7.06E2,2.15E2,1.99E2,3.93E2,1.48E2,4.68E2,6.54E2,4.64E2,1.8E2,6.87E2,1.31E2,3.14E2,5.28E2,2.256E3,1.465E3,1.952E3,3.65E2,4.58E2,1.533E3,1.51E2,5.55E2,1.55E2,6E1,4.1E1,1.58E2,1.88E2,2.05E2,4.1E1,1.07E2,4.09E2,5.9E1,2.49E2,4.05E2,1.8E2,2.84E2,1.14E2,6.6E1,5.26E2,1.61E2,1.424E3,8.32E2,3.82E2,1.083E3,1.31E2,1.821E3,3.54E2,1.1E1,1E2,3.58E2,1.429E3,1.04E2,1.19E2,3.2E1,1.94E2,3.61E2,6.2E1,9.3E1,2.8E1,3.2E1,1.5E1,2.6E1,4.4E1,1.14E2,1.3E2,5.8E1,1.05E2,1E2,6.1E1,4.6E1,1.77E2,2.32E2,5.3E1,6E0,2.41E2,8E0,3.94E2,1.1E1,1.36E2,4.4E1,2.16E2,6.8E1,5.2E2,6E0,1.03E2,5.8E1],"tree_param":{"num_deleted":"0","num_feature":"160","num_nodes":"103","size_leaf_vector":"1"}},{"base_weights":[2.4212444E-2,1.3001104E1,-3.5486603E1,1.5902794E1,-1.4474698E1,-2.2982405E1,-4.6427975E1,2.2051443E1,1.0714656E1,8.1635284E-1,-2.4753958E1,-1.7381586E1,-3.692926E1,-3.949109E1,-5.0742672E1,1.912751E1,2.4851936E1,1.3153354E1,-2.7871935E0,9.147495E0,-7.210019E0,-2.1501535E1,-3.528262E1,-2.3349379E1,-9.535006E0,-3.258566E1,-4.1996284E1,-3.7475784E1,-2.3987803E0,-4.764294E1,-2.7120671E0,2.5508673E1,1.5209089E1,3.0919154E0,2.4958237E1,1.4949831E1,-1.2763172E0,1.0581869E1,-1.62602E1,1.3822399E1,-1.6160802E0,-4.2522125E0,-1.605377E1,-1.2142961E1,-2.4037449E1,-1.5976993E0,-2.0168598E0,-1.4864375E1,-2.6256203E1,-4.182898E0,-2.0437916E1,-2.945766E1,-3.7049213E1,-1.9764636E0,-2.3813343E0,-3.9161217E1,-3.064637E1,-4.544135E1,-2.5382702E0,8.8485664E-1,1.3642863E0,-2.3835103E-1,8.2014114E-1,-1.1229318E-1,3.9655206E-1,8.811726E-1,1.259864E0,5.501456E-1,9.441919E-1,8.975124E-1,-4.7034317E-1,-6.34229E-2,8.330432E-1,-8.9545697E-1,9.07162E-2,4.9587947E-1,1.0357609E0,2.8381267E-1,-2.6111752E-1,-1.013632E0,-1.1778171E-1,-5.413045E-1,-9.6054536E-1,-7.819444E-1,-1.5719603E-1,-1.5961523E0,-1.1209445E0,-1.1948781E0,-2.3286235E-1,-1.0159782E0,-1.509585E0,1.7236982E-1,-7.1644247E-1,-1.2414602E0,2.1637546E-1,-1.6495955E0,-1.1457725E0,-1.9524825E0,-1.3997684E0,-1.997637E0,-1.0202936E0,-6.3587135E-1,-1.5986323E0,-2.4109883E0,-2.1232517E0],"categories":[],"categories_nodes":[],"categories_segments":[],"categories_sizes":[],"default_left":[0,0,0,0,0,0,0,0,0,0,0,0,0,0,0,0,0,0,0,0,0,0,0,0,0,0,0,0,0,0,0,0,0,0,0,0,0,0,0,0,0,0,0,0,0,0,0,0,0,0,0,0,0,0,0,0,0,0,0,0,0,0,0,0,0,0,0,0,0,0,0,0,0,0,0,0,0,0,0,0,0,0,0,0,0,0,0,0,0,0,0,0,0,0,0,0,0,0,0,0,0,0,0,0,0],"id":8,"left_children":[1,3,5,7,9,11,13,15,17,19,21,23,25,27,29,31,33,35,37,39,41,43,45,47,49,51,53,55,-1,57,-1,59,61,63,65,67,69,71,73,75,77,79,81,83,85,-1,-1,87,89,91,93,95,97,-1,-1,99,101,103,-1,-1,-1,-1,-1,-1,-1,-1,-1,-1,-1,-1,-1,-1,-1,-1,-1,-1,-1,-1,-1,-1,-1,-1,-1,-1,-1,-1,-1,-1,-1,-1,-1,-1,-1,-1,-1,-1,-1,-1,-1,-1,-1,-1,-1,-1,-1],"loss_changes":[6.0436535E6,7.66001E5,4.7914E5,2.7690825E5,1.4431452E5,1.27459375E5,5.398675E4,3.2069375E4,1.5525519E5,2.4807621E4,1.8035438E4,5.465503E4,8.9463125E3,1.0538875E4,9.8775E3,4.8340938E4,4.608625E3,1.0352931E5,1.3022032E5,9.181559E3,4.873588E3,9.719625E3,8.574219E2,1.60074375E4,2.9555648E4,2.4901875E3,1.0672812E3,5.5610625E3,0E0,1.931875E3,0E0,9.7849375E3,2.8933188E4,3.0251257E2,3.088E3,5.4926312E4,6.941885E4,2.6172496E4,1.0763484E4,3.2097148E3,1.502293E3,4.2948945E3,5.6472754E2,2.8432725E3,3.5035469E3,0E0,0E0,1.574475E4,1.0923094E4,2.6526959E4,1.827111E4,2.8453906E3,7.4746875E2,0E0,0E0,6.12625E3,2.4661484E3,1.0195625E3,0E0,0E0,0E0,0E0,0E0,0E0,0E0,0E0,0E0,0E0,0E0,0E0,0E0,0E0,0E0,0E0,0E0,0E0,0E0,0E0,0E0,0E0,0E0,0E0,0E0,0E0,0E0,0E0,0E0,0E0,0E0,0E0,0E0,0E0,0E0,0E0,0E0,0E0,0E0,0E0,0E0,0E0,0E0,0E0,0E0,0E0,0E0],"parents":[2147483647,0,0,1,1,2,2,3,3,4,4,5,5,6,6,7,7,8,8,9,9,10,10,11,11,12,12,13,13,14,14,15,15,16,16,17,17,18,18,19,19,20,20,21,21,22,22,23,23,24,24,25,25,26,26,27,27,29,29,31,31,32,32,33,33,34,34,35,35,36,36,37,37,38,38,39,39,40,40,41,41,42,42,43,43,44,44,47,47,48,48,49,49,50,50,51,51,52,52,55,55,56,56,57,57],"right_children":[2,4,6,8,10,12,14,16,18,20,22,24,26,28,30,32,34,36,38,40,42,44,46,48,50,52,54,56,-1,58,-1,60,62,64,66,68,70,72,74,76,78,80,82,84,86,-1,-1,88,90,92,94,96,98,-1,-1,100,102,104,-1,-1,-1,-1,-1,-1,-1,-1,-1,-1,-1,-1,-1,-1,-1,-1,-1,-1,-1,-1,-1,-1,-1,-1,-1,-1,-1,-1,-1,-1,-1,-1,-1,-1,-1,-1,-1,-1,-1,-1,-1,-1,-1,-1,-1,-1,-1],"split_conditions":[4.779762E-1,2.6281074E-1,5.7738096E-1,5.1907563E-1,3.8616744E-1,1.9649108E-1,6.4166665E-1,5.974235E-1,2.2677915E-1,3.5313582E-1,3.1510092E-2,3.7739873E-1,3.3119896E-1,3.5331598E-1,7.0714283E-1,1.8433097E-1,4.108527E-1,4.922278E-1,3.942664E-1,2.596877E-1,2.7434263E-1,4.0376064E-1,3.9207387E-1,6.383224E-1,2.2866373E-1,6.215781E-1,5.224356E-1,3.6886993E-1,-2.3987803E0,2.1672799E-1,-2.7120671E0,1.9243754E-1,1.4787085E-1,5.5522494E-2,5.394525E-1,-6.3965884E-3,2.4569435E-1,5.264879E-1,2.3042746E-2,2.812528E-1,6.482602E-1,4.6239373E-1,6.518124E-1,2.6509702E-1,2.795477E-1,-1.5976993E0,-2.0168598E0,1.7481828E-1,6.25E-1,3.965226E-1,7.1428573E-1,5.7809985E-1,3.488372E-1,-1.9764636E0,-2.3813343E0,4.5838165E-1,3.6937284E-1,3.2068232E-1,-2.5382702E0,8.8485664E-1,1.3642863E0,-2.3835103E-1,8.2014114E-1,-1.1229318E-1,3.9655206E-1,8.811726E-1,1.259864E0,5.501456E-1,9.441919E-1,8.975124E-1,-4.7034317E-1,-6.34229E-2,8.330432E-1,-8.9545697E-1,9.07162E-2,4.9587947E-1,1.0357609E0,2.8381267E-1,-2.6111752E-1,-1.013632E0,-1.1778171E-1,-5.413045E-1,-9.6054536E-1,-7.819444E-1,-1.5719603E-1,-1.5961523E0,-1.1209445E0,-1.1948781E0,-2.3286235E-1,-1.0159782E0,-1.509585E0,1.7236982E-1,-7.1644247E-1,-1.2414602E0,2.1637546E-1,-1.6495955E0,-1.1457725E0,-1.9524825E0,-1.3997684E0,-1.997637E0,-1.0202936E0,-6.3587135E-1,-1.5986323E0,-2.4109883E0,-2.1232517E0],"split_indices":[80,78,30,113,110,127,30,72,78,140,126,137,75,27,30,128,152,90,60,25,27,110,92,143,128,123,28,37,0,77,0,117,125,51,122,139,112,113,126,128,155,113,85,112,128,0,0,78,83,117,138,73,152,0,0,55,42,35,0,0,0,0,0,0,0,0,0,0,0,0,0,0,0,0,0,0,0,0,0,0,0,0,0,0,0,0,0,0,0,0,0,0,0,0,0,0,0,0,0,0,0,0,0,0,0],"split_type":[0,0,0,0,0,0,0,0,0,0,0,0,0,0,0,0,0,0,0,0,0,0,0,0,0,0,0,0,0,0,0,0,0,0,0,0,0,0,0,0,0,0,0,0,0,0,0,0,0,0,0,0,0,0,0,0,0,0,0,0,0,0,0,0,0,0,0,0,0,0,0,0,0,0,0,0,0,0,0,0,0,0,0,0,0,0,0,0,0,0,0,0,0,0,0,0,0,0,0,0,0,0,0,0,0],"sum_hessian":[1.3113E4,9.604E3,3.509E3,8.687E3,9.17E2,1.639E3,1.87E3,3.974E3,4.713E3,3.69E2,5.48E2,1.171E3,4.68E2,7.21E2,1.149E3,1.948E3,2.026E3,3.992E3,7.21E2,1.81E2,1.88E2,4.21E2,1.27E2,6.64E2,5.07E2,2.56E2,2.12E2,5.87E2,1.34E2,6.17E2,5.32E2,7.39E2,1.209E3,1E1,2.016E3,3.55E3,4.42E2,3.62E2,3.59E2,1.26E2,5.5E1,1.42E2,4.6E1,9.1E1,3.3E2,8.1E1,4.6E1,1.71E2,4.93E2,3.41E2,1.66E2,1.55E2,1.01E2,1.53E2,5.9E1,4.67E2,1.2E2,3.71E2,2.46E2,1.39E2,6E2,6.8E1,1.141E3,5E0,5E0,6.6E1,1.95E3,1.774E3,1.776E3,1.31E2,3.11E2,1.23E2,2.39E2,3.29E2,3E1,8.2E1,4.4E1,1.8E1,3.7E1,1.4E1,1.28E2,1.9E1,2.7E1,6.5E1,2.6E1,5.3E1,2.77E2,9E1,8.1E1,1.99E2,2.94E2,1.95E2,1.46E2,1.41E2,2.5E1,9.8E1,5.7E1,8E1,2.1E1,4.47E2,2E1,9E0,1.11E2,1.84E2,1.87E2],"tree_param":{"num_deleted":"0","num_feature":"160","num_nodes":"105","size_leaf_vector":"1"}},{"base_weights":[1.1571505E-1,1.2412864E1,-3.343794E1,1.4957243E1,-1.5022632E1,-2.0311611E1,-4.311287E1,1.8041025E1,5.216301E0,1.4373839E0,-2.2233912E1,-9.773849E0,-2.4845821E1,-3.6654278E1,-4.82665E1,1.4615814E1,2.2147081E1,1.0131493E1,-5.497933E0,1.2631305E1,-2.3612957E0,-1.882551E1,-3.0223188E1,-2.404815E1,-4.6707125E0,-1.8984312E1,-2.9883816E1,-3.4121136E1,-2.2420712E0,-4.4760887E1,-5.1201668E1,1.6846489E1,5.129484E0,2.298188E1,1.7152369E1,1.3104808E1,-6.532289E0,-1.0790773E1,6.437418E0,3.4190705E0,1.821014E1,-2.3625884E-2,-1.1771814E1,-2.4752872E1,-1.4736306E1,-2.6492239E1,-1.7222627E0,-7.9256096E0,-2.7256569E1,-2.016444E1,1.8099521E0,-1.6075579E1,-2.955852E1,-3.5706165E1,-2.5947668E1,-3.7325874E1,-3.002491E1,-2.1418304E0,-2.400503E0,-2.3435667E0,-2.6108847E0,9.644521E-1,4.938785E-1,7.5432354E-1,-3.641776E-2,1.0378946E0,1.1842989E0,1.0354174E0,5.1514727E-1,7.2914714E-1,-6.73714E-1,-1.06488466E-1,-2.5112934E0,-1.9916342E-1,-1.0203638E0,-4.2720824E-1,4.5350644E-1,3.7736234E-1,-4.8220966E-2,1.239139E-1,1.0785457E0,1.9965518E-1,-2.102114E-1,-6.6399425E-1,-3.4954643E-1,-1.3558158E0,-7.5621164E-1,-3.4150752E-1,-8.593901E-1,-1.3594283E0,-5.9236974E-1,-9.1661006E-1,3.9878225E-1,-1.0547694E0,-1.6259463E0,-1.7024462E0,-5.9543973E-1,2.870094E-1,-1.1649368E0,-1.2371534E0,-5.352217E-1,-1.5545081E0,-8.277796E-1,-1.8173555E0,-3.2788447E-1,-4.970911E-1,-1.3713455E0,-1.5247381E0,-1.9262478E0,-1.2310526E0,-1.7812766E0],"categories":[],"categories_nodes":[],"categories_segments":[],"categories_sizes":[],"default_left":[0,0,0,0,0,0,0,0,0,0,0,0,0,0,0,0,0,0,0,0,0,0,0,0,0,0,0,0,0,0,0,0,0,0,0,0,0,0,0,0,0,0,0,0,0,0,0,0,0,0,0,0,0,0,0,0,0,0,0,0,0,0,0,0,0,0,0,0,0,0,0,0,0,0,0,0,0,0,0,0,0,0,0,0,0,0,0,0,0,0,0,0,0,0,0,0,0,0,0,0,0,0,0,0,0,0,0,0,0,0,0],"id":9,"left_children":[1,3,5,7,9,11,13,15,17,19,21,23,25,27,29,31,33,35,37,39,41,43,45,47,49,51,53,55,-1,57,59,61,63,65,67,69,71,73,75,77,79,81,83,85,87,89,-1,91,93,95,97,99,101,103,105,107,109,-1,-1,-1,-1,-1,-1,-1,-1,-1,-1,-1,-1,-1,-1,-1,-1,-1,-1,-1,-1,-1,-1,-1,-1,-1,-1,-1,-1,-1,-1,-1,-1,-1,-1,-1,-1,-1,-1,-1,-1,-1,-1,-1,-1,-1,-1,-1,-1,-1,-1,-1,-1,-1,-1],"loss_changes":[5.384617E6,6.668749E5,4.436055E5,2.6244412E5,9.629792E4,7.080319E4,6.525875E4,9.303E4,1.1080544E5,1.0576339E4,1.4784219E4,3.2591633E4,3.0109688E4,1.7086E4,9.192E3,7.655619E4,1.2181375E4,7.153256E4,4.1889703E4,3.1733672E3,4.0902974E3,9.278078E3,1.7120156E3,5.884336E3,3.3374344E4,1.4376156E4,1.1832531E4,7.930375E3,0E0,1.16675E3,1.86625E2,4.9714938E4,4.0315984E4,3.547125E3,1.0402945E4,4.8284453E4,4.201504E4,2.9964434E4,8.123752E3,4.603325E2,2.0061143E3,2.535661E3,1.7190137E2,3.2495E3,4.4930977E3,6.223594E2,0E0,3.6222812E3,2.4860312E3,1.0823207E4,2.33225E4,1.7468805E4,1.5318516E3,3.904875E3,7.6788906E3,1.9554375E3,8.4384375E3,0E0,0E0,0E0,0E0,0E0,0E0,0E0,0E0,0E0,0E0,0E0,0E0,0E0,0E0,0E0,0E0,0E0,0E0,0E0,0E0,0E0,0E0,0E0,0E0,0E0,0E0,0E0,0E0,0E0,0E0,0E0,0E0,0E0,0E0,0E0,0E0,0E0,0E0,0E0,0E0,0E0,0E0,0E0,0E0,0E0,0E0,0E0,0E0,0E0,0E0,0E0,0E0,0E0,0E0],"parents":[2147483647,0,0,1,1,2,2,3,3,4,4,5,5,6,6,7,7,8,8,9,9,10,10,11,11,12,12,13,13,14,14,15,15,16,16,17,17,18,18,19,19,20,20,21,21,22,22,23,23,24,24,25,25,26,26,27,27,29,29,30,30,31,31,32,32,33,33,34,34,35,35,36,36,37,37,38,38,39,39,40,40,41,41,42,42,43,43,44,44,45,45,47,47,48,48,49,49,50,50,51,51,52,52,53,53,54,54,55,55,56,56],"right_children":[2,4,6,8,10,12,14,16,18,20,22,24,26,28,30,32,34,36,38,40,42,44,46,48,50,52,54,56,-1,58,60,62,64,66,68,70,72,74,76,78,80,82,84,86,88,90,-1,92,94,96,98,100,102,104,106,108,110,-1,-1,-1,-1,-1,-1,-1,-1,-1,-1,-1,-1,-1,-1,-1,-1,-1,-1,-1,-1,-1,-1,-1,-1,-1,-1,-1,-1,-1,-1,-1,-1,-1,-1,-1,-1,-1,-1,-1,-1,-1,-1,-1,-1,-1,-1,-1,-1,-1,-1,-1,-1,-1,-1],"split_conditions":[5.0577146E-1,2.637979E-1,5.230434E-1,5.509791E-1,3.8467407E-1,4.6102026E-1,6.4166665E-1,6.4660317E-1,1.7458494E-1,3.3522508E-1,2.8791139E-2,3.6553946E-1,5.952381E-2,3.749888E-1,6.7587537E-1,2.1605492E-1,4.6404457E-1,3.4924787E-1,6.8217057E-1,1.9238168E-1,2.7434263E-1,6.58934E-1,4.6875E-1,3.9880952E-1,4.9065024E-1,1.970744E-1,-1.04477614E-1,3.2850242E-1,-2.2420712E0,7.419351E-2,7.148463E-1,7.846482E-1,2.5740668E-1,5.942029E-1,6.522685E-2,5.2635044E-1,7.364341E-1,6.999448E-1,3.5658914E-1,5.877617E-1,2.0881161E-1,3.682955E-1,3.122024E-1,3.5475183E-1,2.0430934E-1,7.209302E-1,-1.7222627E0,6.7900725E-2,7.436879E-2,4.5400912E-1,2.2755991E-1,5.185185E-1,4.4047618E-1,6.8217057E-1,5.02397E-1,4.7619048E-1,2.4246387E-1,-2.1418304E0,-2.400503E0,-2.3435667E0,-2.6108847E0,9.644521E-1,4.938785E-1,7.5432354E-1,-3.641776E-2,1.0378946E0,1.1842989E0,1.0354174E0,5.1514727E-1,7.2914714E-1,-6.73714E-1,-1.06488466E-1,-2.5112934E0,-1.9916342E-1,-1.0203638E0,-4.2720824E-1,4.5350644E-1,3.7736234E-1,-4.8220966E-2,1.239139E-1,1.0785457E0,1.9965518E-1,-2.102114E-1,-6.6399425E-1,-3.4954643E-1,-1.3558158E0,-7.5621164E-1,-3.4150752E-1,-8.593901E-1,-1.3594283E0,-5.9236974E-1,-9.1661006E-1,3.9878225E-1,-1.0547694E0,-1.6259463E0,-1.7024462E0,-5.9543973E-1,2.870094E-1,-1.1649368E0,-1.2371534E0,-5.352217E-1,-1.5545081E0,-8.277796E-1,-1.8173555E0,-3.2788447E-1,-4.970911E-1,-1.3713455E0,-1.5247381E0,-1.9262478E0,-1.2310526E0,-1.7812766E0],"split_indices":[90,28,60,68,60,60,30,105,125,140,126,122,134,27,90,28,118,62,103,92,27,108,95,32,140,127,139,72,0,121,63,138,92,72,86,65,153,158,152,72,67,90,130,142,142,53,0,91,121,115,25,23,132,103,15,32,125,0,0,0,0,0,0,0,0,0,0,0,0,0,0,0,0,0,0,0,0,0,0,0,0,0,0,0,0,0,0,0,0,0,0,0,0,0,0,0,0,0,0,0,0,0,0,0,0,0,0,0,0,0,0],"split_type":[0,0,0,0,0,0,0,0,0,0,0,0,0,0,0,0,0,0,0,0,0,0,0,0,0,0,0,0,0,0,0,0,0,0,0,0,0,0,0,0,0,0,0,0,0,0,0,0,0,0,0,0,0,0,0,0,0,0,0,0,0,0,0,0,0,0,0,0,0,0,0,0,0,0,0,0,0,0,0,0,0,0,0,0,0,0,0,0,0,0,0,0,0,0,0,0,0,0,0,0,0,0,0,0,0,0,0,0,0,0,0],"sum_hessian":[1.3048E4,9.549E3,3.499E3,8.739E3,8.1E2,1.486E3,2.013E3,6.637E3,2.102E3,2.47E2,5.63E2,4.48E2,1.038E3,8.97E2,1.116E3,3.621E3,3.016E3,1.441E3,6.61E2,6.2E1,1.85E2,3.97E2,1.66E2,1.17E2,3.31E2,4.82E2,5.56E2,6.89E2,2.08E2,5.16E2,6E2,2.931E3,6.9E2,2.581E3,4.35E2,1.223E3,2.18E2,4.58E2,2.03E2,2.4E1,3.8E1,1.49E2,3.6E1,1.6E2,2.37E2,9.2E1,7.4E1,2E1,9.7E1,9.7E1,2.34E2,3.8E2,1.02E2,2.21E2,3.35E2,3.82E2,3.07E2,3.33E2,1.83E2,1.23E2,4.77E2,2.169E3,7.62E2,2.55E2,4.35E2,6.28E2,1.953E3,2.85E2,1.5E2,1.159E3,6.4E1,1.99E2,1.9E1,2.69E2,1.89E2,3E1,1.73E2,1.2E1,1.2E1,7E0,3.1E1,7.6E1,7.3E1,2.6E1,1E1,1.27E2,3.3E1,5.7E1,1.8E2,8.7E1,5E0,1.2E1,8E0,4.7E1,5E1,3.5E1,6.2E1,2.03E2,3.1E1,1.44E2,2.36E2,9E1,1.2E1,2.16E2,5E0,2.9E1,3.06E2,6.1E1,3.21E2,1.59E2,1.48E2],"tree_param":{"num_deleted":"0","num_feature":"160","num_nodes":"111","size_leaf_vector":"1"}},{"base_weights":[2.9850705E-2,1.204384E1,-3.11647E1,1.4528471E1,-1.258861E1,-1.9899357E1,-4.152896E1,1.9963465E1,9.89619E0,-2.0795713E-1,-2.2865738E1,-1.4880137E1,-3.0257177E1,-3.6798084E1,-4.7136623E1,1.5630631E1,2.1326534E1,1.204856E1,-1.4214028E0,8.053761E0,-7.1179547E0,-1.9861223E1,-3.2660904E1,-2.2014435E1,-5.704103E0,-2.721275E1,-3.590933E1,-3.3485703E1,-4.0051456E1,-2.4388294E0,-4.2753418E1,9.139663E0,2.3236979E1,2.1584846E1,1.0721768E1,1.2896873E1,-1.1196986E1,-1.0431989E1,1.3525366E1,1.3185891E1,-3.1754777E-1,-4.809548E0,-1.6454536E1,-2.5575064E1,-1.7175867E1,-1.3941126E0,-1.7916052E0,-2.41199E1,-5.2969437E0,8.354408E0,-9.247852E0,-2.495838E1,-3.3706413E1,-9.009245E-1,-3.6778465E1,-3.0822508E1,-3.8229263E1,-3.8908096E1,-2.3421698E0,-1.977595E0,-2.2788723E0,5.5202335E-1,-8.9246416E-1,1.2610215E0,8.042492E-1,1.1362703E0,9.6844625E-1,9.3282765E-1,-8.253954E-1,4.6209636E-1,8.314895E-1,-1.0356034E0,1.681951E-1,-8.647928E-1,-1.10849954E-1,1.798144E-1,1.0358974E0,4.9111104E-1,1.0417856E0,3.4036094E-1,-2.5311062E-1,-9.64771E-1,-1.7556748E-1,-9.665519E-1,-5.7698506E-1,-1.3487595E0,-8.301773E-1,-7.158754E-1,-1.0923122E0,-1.5178235E0,-1.0461761E0,-9.519582E-1,5.0582755E-1,1.3571733E0,2.052515E-1,-1.23805836E-1,-7.858552E-1,-1.3242261E0,-7.1084183E-1,-1.4692463E0,-1.8416595E0,-9.473958E-1,-1.8738375E0,-1.3806144E0,-1.7715515E0,-1.9312744E0,-1.0109234E0,-1.8247846E0,-2.0814488E0],"categories":[],"categories_nodes":[],"categories_segments":[],"categories_sizes":[],"default_left":[0,0,0,0,0,0,0,0,0,0,0,0,0,0,0,0,0,0,0,0,0,0,0,0,0,0,0,0,0,0,0,0,0,0,0,0,0,0,0,0,0,0,0,0,0,0,0,0,0,0,0,0,0,0,0,0,0,0,0,0,0,0,0,0,0,0,0,0,0,0,0,0,0,0,0,0,0,0,0,0,0,0,0,0,0,0,0,0,0,0,0,0,0,0,0,0,0,0,0,0,0,0,0,0,0,0,0,0,0],"id":10,"left_children":[1,3,5,7,9,11,13,15,17,19,21,23,25,27,29,31,33,35,37,39,41,43,45,47,49,51,53,55,57,-1,59,61,63,65,67,69,71,73,75,77,79,81,83,85,87,-1,-1,89,91,93,95,97,99,-1,101,103,105,107,-1,-1,-1,-1,-1,-1,-1,-1,-1,-1,-1,-1,-1,-1,-1,-1,-1,-1,-1,-1,-1,-1,-1,-1,-1,-1,-1,-1,-1,-1,-1,-1,-1,-1,-1,-1,-1,-1,-1,-1,-1,-1,-1,-1,-1,-1,-1,-1,-1,-1,-1],"loss_changes":[4.8806415E6,5.756094E5,4.2194475E5,2.1483125E5,1.0967172E5,8.984869E4,4.82645E4,2.2867375E4,1.1238925E5,2.2435904E4,1.3207453E4,7.659609E4,8.756E3,9.719E3,4.080375E3,4.639211E4,7.945E3,7.6577375E4,9.953399E4,7.695788E3,4.530997E3,5.1262344E3,6.4635156E2,2.3064875E4,2.5684748E4,4.598625E3,2.3639844E3,5.32075E3,2.1525625E3,0E0,3.7675E2,2.641104E4,5.74675E3,6.9205E3,1.6080694E4,5.0870812E4,1.905249E4,2.595393E4,1.9776625E4,2.6484727E3,2.3668044E3,3.1833242E3,3.6761523E2,9.797422E2,3.021E3,0E0,0E0,1.1021344E4,1.6079676E4,8.1889976E3,1.7964371E4,4.2094688E3,1.6767969E2,0E0,1.5876562E3,3.9714688E3,5.048125E2,1.3938125E3,0E0,0E0,0E0,0E0,0E0,0E0,0E0,0E0,0E0,0E0,0E0,0E0,0E0,0E0,0E0,0E0,0E0,0E0,0E0,0E0,0E0,0E0,0E0,0E0,0E0,0E0,0E0,0E0,0E0,0E0,0E0,0E0,0E0,0E0,0E0,0E0,0E0,0E0,0E0,0E0,0E0,0E0,0E0,0E0,0E0,0E0,0E0,0E0,0E0,0E0,0E0],"parents":[2147483647,0,0,1,1,2,2,3,3,4,4,5,5,6,6,7,7,8,8,9,9,10,10,11,11,12,12,13,13,14,14,15,15,16,16,17,17,18,18,19,19,20,20,21,21,22,22,23,23,24,24,25,25,26,26,27,27,28,28,30,30,31,31,32,32,33,33,34,34,35,35,36,36,37,37,38,38,39,39,40,40,41,41,42,42,43,43,44,44,47,47,48,48,49,49,50,50,51,51,52,52,54,54,55,55,56,56,57,57],"right_children":[2,4,6,8,10,12,14,16,18,20,22,24,26,28,30,32,34,36,38,40,42,44,46,48,50,52,54,56,58,-1,60,62,64,66,68,70,72,74,76,78,80,82,84,86,88,-1,-1,90,92,94,96,98,100,-1,102,104,106,108,-1,-1,-1,-1,-1,-1,-1,-1,-1,-1,-1,-1,-1,-1,-1,-1,-1,-1,-1,-1,-1,-1,-1,-1,-1,-1,-1,-1,-1,-1,-1,-1,-1,-1,-1,-1,-1,-1,-1,-1,-1,-1,-1,-1,-1,-1,-1,-1,-1,-1,-1],"split_conditions":[5.077144E-1,2.6281074E-1,6.0330856E-1,5.1907563E-1,3.9332896E-1,2.2844386E-1,6.8811613E-1,4.6865508E-1,2.2677915E-1,3.5313582E-1,3.362315E-2,4.8438004E-1,6.963972E-2,6.2154675E-1,3.1937984E-1,2.6958138E-1,2.312214E-1,5.158907E-1,5.394525E-1,2.5655568E-1,2.738042E-1,6.426402E-1,4.730281E-1,6.2473345E-1,1.51178725E-2,3.7175804E-1,3.690476E-1,5.4761904E-1,4.609082E-1,-2.4388294E0,7.103522E-2,4.667219E-1,1.49825E-1,4.70242E-1,5.001924E-1,-6.3965884E-3,6.1039835E-1,7.3773986E-1,7.6260135E-2,2.81881E-1,6.482602E-1,4.6239373E-1,2.993459E-1,3.3333334E-1,6.115108E-1,-1.3941126E0,-1.7916052E0,4.8614073E-1,5.282579E-1,7.318496E-2,4.2400923E-1,4.3452382E-1,3.5552135E-1,-9.009245E-1,1.3463132E-1,2.263989E-2,3.255814E-1,6.883542E-2,-2.3421698E0,-1.977595E0,-2.2788723E0,5.5202335E-1,-8.9246416E-1,1.2610215E0,8.042492E-1,1.1362703E0,9.6844625E-1,9.3282765E-1,-8.253954E-1,4.6209636E-1,8.314895E-1,-1.0356034E0,1.681951E-1,-8.647928E-1,-1.10849954E-1,1.798144E-1,1.0358974E0,4.9111104E-1,1.0417856E0,3.4036094E-1,-2.5311062E-1,-9.64771E-1,-1.7556748E-1,-9.665519E-1,-5.7698506E-1,-1.3487595E0,-8.301773E-1,-7.158754E-1,-1.0923122E0,-1.5178235E0,-1.0461761E0,-9.519582E-1,5.0582755E-1,1.3571733E0,2.052515E-1,-1.23805836E-1,-7.858552E-1,-1.3242261E0,-7.1084183E-1,-1.4692463E0,-1.8416595E0,-9.473958E-1,-1.8738375E0,-1.3806144E0,-1.7715515E0,-1.9312744E0,-1.0109234E0,-1.8247846E0,-2.0814488E0],"split_indices":[65,78,15,113,110,75,15,157,78,140,126,20,121,40,50,117,25,90,72,25,77,108,90,88,126,28,32,32,25,0,136,157,77,113,93,139,118,138,141,78,155,113,92,112,113,0,0,38,115,77,42,132,142,0,157,126,152,131,0,0,0,0,0,0,0,0,0,0,0,0,0,0,0,0,0,0,0,0,0,0,0,0,0,0,0,0,0,0,0,0,0,0,0,0,0,0,0,0,0,0,0,0,0,0,0,0,0,0,0],"split_type":[0,0,0,0,0,0,0,0,0,0,0,0,0,0,0,0,0,0,0,0,0,0,0,0,0,0,0,0,0,0,0,0,0,0,0,0,0,0,0,0,0,0,0,0,0,0,0,0,0,0,0,0,0,0,0,0,0,0,0,0,0,0,0,0,0,0,0,0,0,0,0,0,0,0,0,0,0,0,0,0,0,0,0,0,0,0,0,0,0,0,0,0,0,0,0,0,0,0,0,0,0,0,0,0,0,0,0,0,0],"sum_hessian":[1.3021E4,9.401E3,3.62E3,8.54E3,8.61E2,1.736E3,1.884E3,3.928E3,4.612E3,3.91E2,4.7E2,1.171E3,5.65E2,1.026E3,8.58E2,9.43E2,2.985E3,3.875E3,7.37E2,1.78E2,2.13E2,3.62E2,1.08E2,6.58E2,5.13E2,3.71E2,1.94E2,5.14E2,5.12E2,6.17E2,2.41E2,5.1E2,4.33E2,2.913E3,7.2E1,3.739E3,1.36E2,4.6E2,2.77E2,1.1E2,6.8E1,1.72E2,4.1E1,1.13E2,2.49E2,4.7E1,6.1E1,5.84E2,7.4E1,1.03E2,4.1E2,2.79E2,9.2E1,1E1,1.84E2,3.34E2,1.8E2,4.44E2,6.8E1,1.2E2,1.21E2,4.77E2,3.3E1,3.37E2,9.6E1,1.917E3,9.96E2,5.6E1,1.6E1,1.891E3,1.848E3,8.2E1,5.4E1,2.5E2,2.1E2,1.17E2,1.6E2,7.8E1,3.2E1,2.7E1,4.1E1,1.3E1,1.59E2,2.4E1,1.7E1,9.6E1,1.7E1,1.57E2,9.2E1,1.95E2,3.89E2,3.9E1,3.5E1,1.8E1,8.5E1,2.01E2,2.09E2,2.43E2,3.6E1,4.3E1,4.9E1,8E0,1.76E2,2.01E2,1.33E2,1.75E2,5E0,2.43E2,2.01E2],"tree_param":{"num_deleted":"0","num_feature":"160","num_nodes":"109","size_leaf_vector":"1"}},{"base_weights":[1.2025709E-1,1.1614237E1,-2.8994083E1,1.3955374E1,-1.1443018E1,-1.6914654E1,-3.884231E1,1.9040565E1,9.521271E0,3.3091566E-1,-1.9880688E1,-1.0729759E1,-2.8451025E1,-3.263896E1,-4.3649895E1,1.637516E1,2.1392162E1,1.1683658E1,-2.348178E0,7.058037E0,-6.9808164E0,-1.7279655E1,-2.8175741E1,-2.9099114E0,-1.7181664E1,-2.537656E1,-3.7190678E1,-2.9345606E1,-3.7221554E1,-3.995941E1,-4.5984592E1,1.3325205E1,2.3091396E1,2.1605251E1,8.976238E0,1.2711806E1,-7.3254433E0,8.496758E0,-1.3990963E1,1.0675372E1,-2.1141548E0,5.3065596E0,-8.900925E0,-2.2488455E1,-1.3616666E1,-1.4731692E0,-1.0950335E0,7.128528E0,-1.0878891E1,-7.560395E0,-2.175667E1,-1.4414274E1,-2.6281113E1,-1.6877648E0,-2.0528276E0,-2.3002207E1,-3.1986229E1,-3.5137962E1,-2.1339722E0,-1.8954489E0,-2.1645453E0,-2.1225765E0,-2.3643906E0,4.2326918E-1,9.811581E-1,1.1781191E0,-1.637893E-1,1.0835017E0,1.1536168E-1,-4.7539413E-2,7.532232E-1,7.8669024E-1,4.2521954E-1,-8.8241786E-1,-4.8530683E-2,-2.0661084E-1,6.6665655E-1,8.301417E-1,-7.6843613E-1,6.5615344E-1,1.9742256E-2,3.112012E-1,-2.4561062E-1,4.7753578E-1,-1.4085566E-1,-1.9570847E-1,-6.33355E-1,-8.280069E-1,-1.2551497E0,-7.25609E-1,3.021515E-3,9.3951315E-1,5.427472E-2,1.6498643E-1,-6.6996247E-1,1.643977E-1,-7.669732E-1,-1.6327533E0,-8.6490136E-1,-4.6387616E-1,-8.696114E-1,-6.22602E-1,-1.3530514E0,-1.4071152E0,-7.929701E-1,-1.6663207E0,-1.2505006E0,-1.8402302E0,-1.4900652E0],"categories":[],"categories_nodes":[],"categories_segments":[],"categories_sizes":[],"default_left":[0,0,0,0,0,0,0,0,0,0,0,0,0,0,0,0,0,0,0,0,0,0,0,0,0,0,0,0,0,0,0,0,0,0,0,0,0,0,0,0,0,0,0,0,0,0,0,0,0,0,0,0,0,0,0,0,0,0,0,0,0,0,0,0,0,0,0,0,0,0,0,0,0,0,0,0,0,0,0,0,0,0,0,0,0,0,0,0,0,0,0,0,0,0,0,0,0,0,0,0,0,0,0,0,0,0,0,0,0],"id":11,"left_children":[1,3,5,7,9,11,13,15,17,19,21,23,25,27,29,31,33,35,37,39,41,43,45,47,49,51,53,55,57,59,61,63,65,67,69,71,73,75,77,79,81,83,85,87,89,-1,-1,91,93,95,97,99,101,-1,-1,103,105,107,-1,-1,-1,-1,-1,-1,-1,-1,-1,-1,-1,-1,-1,-1,-1,-1,-1,-1,-1,-1,-1,-1,-1,-1,-1,-1,-1,-1,-1,-1,-1,-1,-1,-1,-1,-1,-1,-1,-1,-1,-1,-1,-1,-1,-1,-1,-1,-1,-1,-1,-1],"loss_changes":[4.351989E6,5.0347112E5,4.372325E5,1.9068688E5,8.544487E4,1.1777709E5,5.9019E4,2.435425E4,1.1614291E5,1.7756566E4,1.0318E4,5.4386703E4,1.4553844E4,1.2318E4,7.96775E3,3.7625406E4,5.335125E3,7.488925E4,8.825258E4,6.2610576E3,4.1291973E3,7.0168047E3,3.0304688E2,3.9196027E4,2.5846844E4,3.8809688E3,5.721875E2,8.0025312E3,2.6774375E3,1.417875E3,1.16525E3,3.8885547E4,7.2446875E3,2.51675E3,2.2519392E3,4.603125E4,1.2904278E4,2.2166412E4,1.4459891E4,3.3905527E3,1.2903007E3,8.55054E2,2.7659111E3,2.0136016E3,2.794875E3,0E0,0E0,1.5270094E4,9.800936E3,1.6254531E4,1.8866953E4,3.713711E2,3.9301562E3,0E0,0E0,5.3134844E3,2.5825312E3,1.3157812E3,0E0,0E0,0E0,0E0,0E0,0E0,0E0,0E0,0E0,0E0,0E0,0E0,0E0,0E0,0E0,0E0,0E0,0E0,0E0,0E0,0E0,0E0,0E0,0E0,0E0,0E0,0E0,0E0,0E0,0E0,0E0,0E0,0E0,0E0,0E0,0E0,0E0,0E0,0E0,0E0,0E0,0E0,0E0,0E0,0E0,0E0,0E0,0E0,0E0,0E0,0E0],"parents":[2147483647,0,0,1,1,2,2,3,3,4,4,5,5,6,6,7,7,8,8,9,9,10,10,11,11,12,12,13,13,14,14,15,15,16,16,17,17,18,18,19,19,20,20,21,21,22,22,23,23,24,24,25,25,26,26,27,27,28,28,29,29,30,30,31,31,32,32,33,33,34,34,35,35,36,36,37,37,38,38,39,39,40,40,41,41,42,42,43,43,44,44,47,47,48,48,49,49,50,50,51,51,52,52,55,55,56,56,57,57],"right_children":[2,4,6,8,10,12,14,16,18,20,22,24,26,28,30,32,34,36,38,40,42,44,46,48,50,52,54,56,58,60,62,64,66,68,70,72,74,76,78,80,82,84,86,88,90,-1,-1,92,94,96,98,100,102,-1,-1,104,106,108,-1,-1,-1,-1,-1,-1,-1,-1,-1,-1,-1,-1,-1,-1,-1,-1,-1,-1,-1,-1,-1,-1,-1,-1,-1,-1,-1,-1,-1,-1,-1,-1,-1,-1,-1,-1,-1,-1,-1,-1,-1,-1,-1,-1,-1,-1,-1,-1,-1,-1,-1],"split_conditions":[4.9980763E-1,2.6281074E-1,5.517857E-1,5.1907563E-1,3.8428167E-1,2.1926995E-1,6.4166665E-1,5.03876E-1,2.2677915E-1,3.557522E-1,3.6830297E-1,2.9761905E-2,3.7785158E-1,2.3042746E-2,6.6752595E-1,2.746455E-1,5.1253545E-1,4.6785715E-1,3.942664E-1,2.515301E-1,6.229542E-2,6.545153E-1,5.847694E-1,4.5766297E-1,6.385362E-2,5.7569295E-1,4.8166983E-2,6.87711E-1,4.710132E-1,7.344585E-2,7.3446697E-1,5.9098226E-1,2.080297E-1,2.3691556E-1,5.6589144E-1,2.9761905E-2,1.2443238E-1,5.185185E-1,5.2476063E-2,8.602596E-1,6.404032E-1,7.953092E-1,5.163524E-1,5.7399113E-2,8.208955E-1,-1.4731692E0,-1.0950335E0,5.9883393E-2,7.268979E-2,4.647482E-1,1.0109486E-1,6.130952E-1,5.426357E-1,-1.6877648E0,-2.0528276E0,3.425849E-1,4.8018467E-1,3.6460555E-1,-2.1339722E0,-1.8954489E0,-2.1645453E0,-2.1225765E0,-2.3643906E0,4.2326918E-1,9.811581E-1,1.1781191E0,-1.637893E-1,1.0835017E0,1.1536168E-1,-4.7539413E-2,7.532232E-1,7.8669024E-1,4.2521954E-1,-8.8241786E-1,-4.8530683E-2,-2.0661084E-1,6.6665655E-1,8.301417E-1,-7.6843613E-1,6.5615344E-1,1.9742256E-2,3.112012E-1,-2.4561062E-1,4.7753578E-1,-1.4085566E-1,-1.9570847E-1,-6.33355E-1,-8.280069E-1,-1.2551497E0,-7.25609E-1,3.021515E-3,9.3951315E-1,5.427472E-2,1.6498643E-1,-6.6996247E-1,1.643977E-1,-7.669732E-1,-1.6327533E0,-8.6490136E-1,-4.6387616E-1,-8.696114E-1,-6.22602E-1,-1.3530514E0,-1.4071152E0,-7.929701E-1,-1.6663207E0,-1.2505006E0,-1.8402302E0,-1.4900652E0],"split_indices":[90,78,80,113,110,125,30,152,78,140,25,134,25,126,90,117,113,130,60,125,146,108,105,110,121,138,126,68,28,121,113,72,125,75,52,134,125,72,116,158,155,138,93,121,138,0,0,121,111,60,127,83,153,0,0,57,142,87,0,0,0,0,0,0,0,0,0,0,0,0,0,0,0,0,0,0,0,0,0,0,0,0,0,0,0,0,0,0,0,0,0,0,0,0,0,0,0,0,0,0,0,0,0,0,0,0,0,0,0],"split_type":[0,0,0,0,0,0,0,0,0,0,0,0,0,0,0,0,0,0,0,0,0,0,0,0,0,0,0,0,0,0,0,0,0,0,0,0,0,0,0,0,0,0,0,0,0,0,0,0,0,0,0,0,0,0,0,0,0,0,0,0,0,0,0,0,0,0,0,0,0,0,0,0,0,0,0,0,0,0,0,0,0,0,0,0,0,0,0,0,0,0,0,0,0,0,0,0,0,0,0,0,0,0,0,0,0,0,0,0,0],"sum_hessian":[1.3003E4,9.323E3,3.68E3,8.464E3,8.59E2,1.654E3,2.026E3,3.941E3,4.523E3,3.59E2,5E2,1.078E3,5.76E2,8.88E2,1.138E3,1.851E3,2.09E3,3.826E3,6.97E2,1.87E2,1.72E2,3.83E2,1.17E2,4.88E2,5.9E2,4.29E2,1.47E2,5.21E2,3.67E2,4.48E2,6.9E2,1.275E3,5.76E2,2.054E3,3.6E1,3.63E3,1.96E2,3.61E2,3.36E2,1.34E2,5.3E1,2.3E1,1.49E2,1.56E2,2.27E2,9.4E1,2.3E1,2.16E2,2.72E2,1.91E2,3.99E2,3.4E1,3.95E2,8.3E1,6.4E1,1.56E2,3.65E2,2.71E2,9.6E1,2.85E2,1.63E2,1.95E2,4.95E2,7.21E2,5.54E2,5.66E2,1E1,2.047E3,7E0,1.4E1,2.2E1,2.111E3,1.519E3,7.4E1,1.22E2,1E2,2.61E2,1.4E1,3.22E2,1.08E2,2.6E1,1.3E1,4E1,1.5E1,8E0,6.5E1,8.4E1,5E1,1.06E2,2.13E2,1.4E1,7.3E1,1.43E2,4.1E1,2.31E2,8E1,1.11E2,1.14E2,2.85E2,1.4E1,2E1,2.2E1,3.73E2,8.9E1,6.7E1,3.03E2,6.2E1,2.02E2,6.9E1],"tree_param":{"num_deleted":"0","num_feature":"160","num_nodes":"109","size_leaf_vector":"1"}},{"base_weights":[-3.3572685E-2,1.0520609E1,-2.8630669E1,1.30195465E1,-1.1326443E1,-1.6752008E1,-3.653621E1,9.459532E0,1.9235117E1,1.2028071E0,-1.965317E1,-1.140174E1,-2.8506222E1,-2.9408646E1,-4.0390186E1,1.254624E1,2.0872445E0,5.578493E-1,1.951403E1,7.449333E0,-4.9861927E0,-1.6854416E1,-2.8203793E1,-1.6862585E1,-5.2107162E0,-2.6178366E1,-1.8090715E0,-2.5958286E1,-3.4109596E1,-3.7433186E1,-4.382344E1,1.6595503E1,7.648739E0,7.383315E0,-5.5826173E0,1.5684569E1,-6.331807E0,1.9749512E1,9.951333E0,1.0518397E1,-4.780478E0,3.3212624E0,-7.6673865E0,-1.0510578E1,-1.9742882E1,-2.5181524E1,-1.6317354E0,-1.8184856E1,-6.704309E-1,-7.2353787E0,1.730163E1,-2.1649815E1,-3.0277014E1,-2.3390738E1,-3.2208424E1,-3.4448338E1,-5.5095977E-1,-2.0186677E0,-3.5275055E1,-2.2556322E0,-2.031517E0,6.855411E-1,1.1329889E0,-4.8928997E-1,4.630373E-1,1.4819328E-1,6.25868E-1,2.3567114E-2,-7.6189166E-1,1.2175087E0,-6.777641E-2,6.9743246E-2,-5.1315457E-1,8.23454E-1,1.011065E0,8.0892795E-1,-8.2223094E-1,6.613287E-1,5.2286875E-2,-3.9701042E-1,-1.6297912E-3,4.2538652E-1,-1.4536278E-1,-9.117873E-2,-5.4672474E-1,-6.590517E-1,-6.437633E-2,-1.0897584E0,-7.4770856E-1,-7.937116E-1,-1.2947373E0,-6.6318387E-1,-1.1555971E0,-7.93346E-1,2.4603148E-1,-4.7037043E-2,-6.703171E-1,1.2694753E0,-1.1647818E-1,-4.039049E-1,-1.147192E0,-1.1942731E0,-1.5658568E0,-8.571563E-1,-1.3682705E0,-9.751479E-1,-1.7160408E0,-5.725978E-1,-1.7394847E0,-1.6202472E0,-1.8779968E0],"categories":[],"categories_nodes":[],"categories_segments":[],"categories_sizes":[],"default_left":[0,0,0,0,0,0,0,0,0,0,0,0,0,0,0,0,0,0,0,0,0,0,0,0,0,0,0,0,0,0,0,0,0,0,0,0,0,0,0,0,0,0,0,0,0,0,0,0,0,0,0,0,0,0,0,0,0,0,0,0,0,0,0,0,0,0,0,0,0,0,0,0,0,0,0,0,0,0,0,0,0,0,0,0,0,0,0,0,0,0,0,0,0,0,0,0,0,0,0,0,0,0,0,0,0,0,0,0,0,0,0],"id":12,"left_children":[1,3,5,7,9,11,13,15,17,19,21,23,25,27,29,31,33,35,37,39,41,43,45,47,49,51,-1,53,55,57,59,61,63,65,67,69,71,73,75,77,79,81,83,85,87,89,-1,91,93,95,97,99,101,103,105,107,-1,-1,109,-1,-1,-1,-1,-1,-1,-1,-1,-1,-1,-1,-1,-1,-1,-1,-1,-1,-1,-1,-1,-1,-1,-1,-1,-1,-1,-1,-1,-1,-1,-1,-1,-1,-1,-1,-1,-1,-1,-1,-1,-1,-1,-1,-1,-1,-1,-1,-1,-1,-1,-1,-1],"loss_changes":[3.9511128E6,5.221795E5,3.307815E5,1.8969138E5,1.02475234E5,8.846919E4,5.69855E4,1.2417516E5,1.6261125E4,1.5230672E4,1.3639469E4,3.2771523E4,6.9258125E3,1.1224875E4,1.228025E4,7.616156E4,6.5521047E4,4.998489E3,6.73175E3,7.407537E3,4.436132E3,7.9802812E3,1.1007891E3,1.1033703E4,2.0954197E4,5.6871562E3,0E0,6.2217188E3,2.0640625E3,3.2890625E3,7.47875E2,3.65095E4,4.9076867E4,2.1607281E4,3.852871E4,2.2502476E3,1.01760205E3,4.310875E3,1.2758412E4,4.0123594E3,5.9902484E2,1.6081907E3,2.8426387E3,3.4790088E3,2.6777031E3,1.8219922E2,0E0,1.1255656E4,3.4777495E3,1.6300426E4,6.0948896E3,2.7268672E3,4.2314062E2,7.2740625E3,2.653289E3,2.0146875E3,0E0,0E0,1.641625E3,0E0,0E0,0E0,0E0,0E0,0E0,0E0,0E0,0E0,0E0,0E0,0E0,0E0,0E0,0E0,0E0,0E0,0E0,0E0,0E0,0E0,0E0,0E0,0E0,0E0,0E0,0E0,0E0,0E0,0E0,0E0,0E0,0E0,0E0,0E0,0E0,0E0,0E0,0E0,0E0,0E0,0E0,0E0,0E0,0E0,0E0,0E0,0E0,0E0,0E0,0E0,0E0],"parents":[2147483647,0,0,1,1,2,2,3,3,4,4,5,5,6,6,7,7,8,8,9,9,10,10,11,11,12,12,13,13,14,14,15,15,16,16,17,17,18,18,19,19,20,20,21,21,22,22,23,23,24,24,25,25,27,27,28,28,29,29,30,30,31,31,32,32,33,33,34,34,35,35,36,36,37,37,38,38,39,39,40,40,41,41,42,42,43,43,44,44,45,45,47,47,48,48,49,49,50,50,51,51,52,52,53,53,54,54,55,55,58,58],"right_children":[2,4,6,8,10,12,14,16,18,20,22,24,26,28,30,32,34,36,38,40,42,44,46,48,50,52,-1,54,56,58,60,62,64,66,68,70,72,74,76,78,80,82,84,86,88,90,-1,92,94,96,98,100,102,104,106,108,-1,-1,110,-1,-1,-1,-1,-1,-1,-1,-1,-1,-1,-1,-1,-1,-1,-1,-1,-1,-1,-1,-1,-1,-1,-1,-1,-1,-1,-1,-1,-1,-1,-1,-1,-1,-1,-1,-1,-1,-1,-1,-1,-1,-1,-1,-1,-1,-1,-1,-1,-1,-1,-1,-1],"split_conditions":[4.7619048E-1,2.6281074E-1,5.5714285E-1,6.433582E-1,3.8428167E-1,2.619133E-1,6.1785716E-1,1.7629005E-1,4.3634355E-1,3.5313582E-1,3.071845E-2,3.7739873E-1,3.749888E-1,2.257359E-2,6.076739E-1,9.284267E-3,4.3662947E-1,2.3570852E-1,2.312214E-1,2.5065064E-1,7.153292E-2,4.087421E-1,3.7668335E-1,5.1897264E-1,4.347826E-1,6.231884E-1,-1.8090715E0,7.4657E-2,4.7248062E-1,3.2750532E-1,3.1627908E-1,-1.6880487E-4,3.9452496E-1,7.547522E-2,6.202153E-2,3.582147E-1,3.4316546E-1,6.1550385E-1,4.9749905E-1,8.602596E-1,2.943957E-1,7.596899E-1,5.1288956E-1,2.6509702E-1,5.3057706E-1,2.227856E-1,-1.6317354E0,6.1030596E-1,-7.751938E-2,5.133262E-1,1.9375393E-1,6.88774E-2,3.75E-1,6.87711E-1,5.1679198E-2,6.387576E-1,-5.5095977E-1,-2.0186677E0,6.937511E-2,-2.2556322E0,-2.031517E0,6.855411E-1,1.1329889E0,-4.8928997E-1,4.630373E-1,1.4819328E-1,6.25868E-1,2.3567114E-2,-7.6189166E-1,1.2175087E0,-6.777641E-2,6.9743246E-2,-5.1315457E-1,8.23454E-1,1.011065E0,8.0892795E-1,-8.2223094E-1,6.613287E-1,5.2286875E-2,-3.9701042E-1,-1.6297912E-3,4.2538652E-1,-1.4536278E-1,-9.117873E-2,-5.4672474E-1,-6.590517E-1,-6.437633E-2,-1.0897584E0,-7.4770856E-1,-7.937116E-1,-1.2947373E0,-6.6318387E-1,-1.1555971E0,-7.93346E-1,2.4603148E-1,-4.7037043E-2,-6.703171E-1,1.2694753E0,-1.1647818E-1,-4.039049E-1,-1.147192E0,-1.1942731E0,-1.5658568E0,-8.571563E-1,-1.3682705E0,-9.751479E-1,-1.7160408E0,-5.725978E-1,-1.7394847E0,-1.6202472E0,-1.8779968E0],"split_indices":[80,128,30,105,110,28,30,125,157,140,126,137,27,126,60,119,40,128,25,27,146,110,92,55,122,123,0,136,150,35,100,119,72,141,131,40,60,100,143,158,17,153,143,112,100,77,0,123,104,135,78,156,82,68,131,118,0,0,131,0,0,0,0,0,0,0,0,0,0,0,0,0,0,0,0,0,0,0,0,0,0,0,0,0,0,0,0,0,0,0,0,0,0,0,0,0,0,0,0,0,0,0,0,0,0,0,0,0,0,0,0],"split_type":[0,0,0,0,0,0,0,0,0,0,0,0,0,0,0,0,0,0,0,0,0,0,0,0,0,0,0,0,0,0,0,0,0,0,0,0,0,0,0,0,0,0,0,0,0,0,0,0,0,0,0,0,0,0,0,0,0,0,0,0,0,0,0,0,0,0,0,0,0,0,0,0,0,0,0,0,0,0,0,0,0,0,0,0,0,0,0,0,0,0,0,0,0,0,0,0,0,0,0,0,0,0,0,0,0,0,0,0,0,0,0],"sum_hessian":[1.3089E4,9.561E3,3.528E3,8.58E3,9.81E2,1.411E3,2.117E3,5.457E3,3.123E3,3.92E2,5.89E2,9.71E2,4.4E2,7.46E2,1.371E3,3.846E3,1.611E3,4.6E1,3.077E3,1.95E2,1.97E2,4.46E2,1.43E2,5.15E2,4.56E2,3.41E2,9.9E1,4.34E2,3.12E2,7.43E2,6.28E2,2.104E3,1.742E3,9.53E2,6.58E2,1.4E1,3.2E1,3.002E3,7.5E1,1.56E2,3.9E1,4.8E1,1.49E2,1.41E2,3.05E2,8.9E1,5.4E1,4.76E2,3.9E1,4.19E2,3.7E1,1.65E2,1.76E2,3.11E2,1.23E2,3.07E2,5E0,3.07E2,4.36E2,4.38E2,1.9E2,1.428E3,6.76E2,1.47E2,1.595E3,5.13E2,4.4E2,4.05E2,2.53E2,9E0,5E0,1.1E1,2.1E1,3.82E2,2.62E3,6.1E1,1.4E1,1.21E2,3.5E1,2.3E1,1.6E1,2.6E1,2.2E1,5.4E1,9.5E1,1.09E2,3.2E1,2.11E2,9.4E1,8E0,8.1E1,2.4E2,2.36E2,1E1,2.9E1,2.08E2,2.11E2,2.6E1,1.1E1,1.5E1,1.5E2,2.8E1,1.48E2,1.23E2,1.88E2,1.9E1,1.04E2,5E0,3.02E2,2E2,2.36E2],"tree_param":{"num_deleted":"0","num_feature":"160","num_nodes":"111","size_leaf_vector":"1"}},{"base_weights":[-1.3559046E-1,9.943939E0,-2.7574934E1,1.23640585E1,-1.1061398E1,-1.5813321E1,-3.446435E1,1.6619642E1,7.7297235E0,1.4893253E-1,-1.9558714E1,-1.128232E1,-2.7056099E1,-2.775429E1,-3.8304733E1,1.3944044E1,1.8887909E1,1.1393714E1,-3.0245176E-1,5.913189E0,-6.7625427E0,-1.726778E1,-2.8589024E1,-1.7070082E1,-6.1367364E0,-2.2217527E1,-3.0438383E1,-2.4507019E1,-3.219593E1,-4.1796318E1,-3.5606888E1,9.423464E0,1.7516216E1,1.9108809E1,1.0548223E1,1.4023875E1,4.308093E0,-4.682666E0,8.14203E0,9.440353E0,-3.0704527E0,3.9707077E0,-9.040328E0,-1.4589538E1,-2.1453724E1,-1.1283276E0,-1.5294696E0,-7.919159E0,-2.025527E1,1.2197445E1,-8.545269E0,-1.8262909E1,-1.4852839E0,-2.9055937E1,-1.8531166E0,-2.9074673E1,-2.1078997E1,-2.5902317E1,-3.3754612E1,-1.7045306E0,-2.1109653E0,-3.3650116E1,-3.8965466E1,1.1969781E-1,6.545984E-1,8.926808E-1,-1.3690591E0,1.0804999E0,9.3515694E-1,8.024866E-1,-4.4267294E-1,7.251124E-1,-1.2068735E0,3.4898314E-1,-7.60688E-1,-4.9123788E-1,1.9428717E-1,-2.0886518E-2,7.1695226E-1,7.9651725E-1,2.7159324E-1,4.8065986E-2,-3.184071E-1,4.6794748E-1,-1.1395669E-1,1.4656034E-3,-5.233241E-1,-7.823005E-1,-2.6303676E-1,-1.1211979E0,-7.0312184E-1,-1.0649574E0,-1.1367821E-1,-7.382537E-1,-1.4084994E0,9.0584576E-1,-4.506516E-2,-3.336794E-1,-1.1825279E0,-2.160441E-1,-9.6779615E-1,-6.802462E-1,-1.4704497E0,-1.5825847E0,-9.281406E-1,-9.1461134E-1,-1.3301501E0,-1.4203773E0,-6.7436355E-1,-1.6232245E0,-1.9591484E0,-1.5815668E0,-1.7919753E0,-9.254371E-1,-1.9629532E0],"categories":[],"categories_nodes":[],"categories_segments":[],"categories_sizes":[],"default_left":[0,0,0,0,0,0,0,0,0,0,0,0,0,0,0,0,0,0,0,0,0,0,0,0,0,0,0,0,0,0,0,0,0,0,0,0,0,0,0,0,0,0,0,0,0,0,0,0,0,0,0,0,0,0,0,0,0,0,0,0,0,0,0,0,0,0,0,0,0,0,0,0,0,0,0,0,0,0,0,0,0,0,0,0,0,0,0,0,0,0,0,0,0,0,0,0,0,0,0,0,0,0,0,0,0,0,0,0,0,0,0,0,0,0,0],"id":13,"left_children":[1,3,5,7,9,11,13,15,17,19,21,23,25,27,29,31,33,35,37,39,41,43,45,47,49,51,53,55,57,59,61,63,65,67,69,71,73,75,77,79,81,83,85,87,89,-1,-1,91,93,95,97,99,-1,101,-1,103,105,107,109,-1,-1,111,113,-1,-1,-1,-1,-1,-1,-1,-1,-1,-1,-1,-1,-1,-1,-1,-1,-1,-1,-1,-1,-1,-1,-1,-1,-1,-1,-1,-1,-1,-1,-1,-1,-1,-1,-1,-1,-1,-1,-1,-1,-1,-1,-1,-1,-1,-1,-1,-1,-1,-1,-1,-1],"loss_changes":[3.6402885E6,4.894787E5,2.859745E5,1.7010762E5,9.478627E4,6.632178E4,5.636975E4,2.7037625E4,1.2166741E5,1.7170896E4,1.12110625E4,2.770875E4,5.4555312E3,1.096025E4,1.1832875E4,3.3226906E4,4.27575E3,5.284628E4,4.7975055E4,7.4760156E3,4.8282197E3,4.7731875E3,6.6571875E2,1.26325E4,2.2006469E4,4.131508E3,9.1278125E2,6.8196562E3,2.4648438E3,5.44625E2,3.972E3,2.356293E4,1.7969125E4,1.9945E3,7.08082E3,3.8137625E4,4.0263934E4,3.7665617E4,2.3506307E4,4.307876E3,8.974631E2,1.2006863E3,2.0967705E3,2.6751758E3,9.359844E2,0E0,0E0,8.636086E3,1.3702094E4,4.5152334E3,1.2250672E4,1.5293164E3,0E0,6.0478125E2,0E0,4.8524062E3,3.7422734E3,1.8520547E3,6.1165625E2,0E0,0E0,1.14025E3,1.0093125E3,0E0,0E0,0E0,0E0,0E0,0E0,0E0,0E0,0E0,0E0,0E0,0E0,0E0,0E0,0E0,0E0,0E0,0E0,0E0,0E0,0E0,0E0,0E0,0E0,0E0,0E0,0E0,0E0,0E0,0E0,0E0,0E0,0E0,0E0,0E0,0E0,0E0,0E0,0E0,0E0,0E0,0E0,0E0,0E0,0E0,0E0,0E0,0E0,0E0,0E0,0E0,0E0],"parents":[2147483647,0,0,1,1,2,2,3,3,4,4,5,5,6,6,7,7,8,8,9,9,10,10,11,11,12,12,13,13,14,14,15,15,16,16,17,17,18,18,19,19,20,20,21,21,22,22,23,23,24,24,25,25,26,26,27,27,28,28,29,29,30,30,31,31,32,32,33,33,34,34,35,35,36,36,37,37,38,38,39,39,40,40,41,41,42,42,43,43,44,44,47,47,48,48,49,49,50,50,51,51,53,53,55,55,56,56,57,57,58,58,61,61,62,62],"right_children":[2,4,6,8,10,12,14,16,18,20,22,24,26,28,30,32,34,36,38,40,42,44,46,48,50,52,54,56,58,60,62,64,66,68,70,72,74,76,78,80,82,84,86,88,90,-1,-1,92,94,96,98,100,-1,102,-1,104,106,108,110,-1,-1,112,114,-1,-1,-1,-1,-1,-1,-1,-1,-1,-1,-1,-1,-1,-1,-1,-1,-1,-1,-1,-1,-1,-1,-1,-1,-1,-1,-1,-1,-1,-1,-1,-1,-1,-1,-1,-1,-1,-1,-1,-1,-1,-1,-1,-1,-1,-1,-1,-1,-1,-1,-1,-1],"split_conditions":[4.779762E-1,2.6281074E-1,5.535714E-1,4.6995273E-1,3.9332896E-1,2.7165037E-1,6.1785716E-1,6.3410854E-1,1.7411828E-1,3.6212003E-1,3.362315E-2,3.8164252E-1,6.086956E-1,2.244142E-2,3.007752E-1,2.3143147E-1,4.719784E-1,7.2720274E-2,4.863124E-1,2.2974065E-1,6.7727305E-2,4.3333334E-1,4.6287033E-1,3.9880952E-1,4.2746893E-1,2.6985553E-1,4.538275E-1,1.8455532E-1,5.0303847E-1,7.4476707E-1,7.37533E-2,4.6865508E-1,5.8928573E-1,1.457103E-1,4.047619E-1,7.225856E-1,3.4924787E-1,7.928777E-2,7.178956E-1,4.663332E-1,3.5748854E-1,7.5479746E-1,2.0430934E-1,9.7080395E-2,6.92074E-1,-1.1283276E0,-1.5294696E0,3.5516542E-1,6.24137E-1,6.7785144E-1,7.630219E-2,5.2813068E-2,-1.4852839E0,3.443632E-1,-1.8531166E0,3.8647342E-1,2.3440725E-1,3.944563E-1,4.390649E-1,-1.7045306E0,-2.1109653E0,2.0903427E-2,3.7797313E-2,1.1969781E-1,6.545984E-1,8.926808E-1,-1.3690591E0,1.0804999E0,9.3515694E-1,8.024866E-1,-4.4267294E-1,7.251124E-1,-1.2068735E0,3.4898314E-1,-7.60688E-1,-4.9123788E-1,1.9428717E-1,-2.0886518E-2,7.1695226E-1,7.9651725E-1,2.7159324E-1,4.8065986E-2,-3.184071E-1,4.6794748E-1,-1.1395669E-1,1.4656034E-3,-5.233241E-1,-7.823005E-1,-2.6303676E-1,-1.1211979E0,-7.0312184E-1,-1.0649574E0,-1.1367821E-1,-7.382537E-1,-1.4084994E0,9.0584576E-1,-4.506516E-2,-3.336794E-1,-1.1825279E0,-2.160441E-1,-9.6779615E-1,-6.802462E-1,-1.4704497E0,-1.5825847E0,-9.281406E-1,-9.1461134E-1,-1.3301501E0,-1.4203773E0,-6.7436355E-1,-1.6232245E0,-1.9591484E0,-1.5815668E0,-1.7919753E0,-9.254371E-1,-1.9629532E0],"split_indices":[80,128,30,18,110,128,30,100,125,140,126,72,123,126,50,117,68,144,122,77,146,80,40,82,60,77,27,78,17,68,121,157,83,75,133,143,62,146,108,143,60,88,142,96,108,0,0,117,158,158,136,116,0,42,0,22,128,137,27,0,0,76,66,0,0,0,0,0,0,0,0,0,0,0,0,0,0,0,0,0,0,0,0,0,0,0,0,0,0,0,0,0,0,0,0,0,0,0,0,0,0,0,0,0,0,0,0,0,0,0,0,0,0,0,0],"split_type":[0,0,0,0,0,0,0,0,0,0,0,0,0,0,0,0,0,0,0,0,0,0,0,0,0,0,0,0,0,0,0,0,0,0,0,0,0,0,0,0,0,0,0,0,0,0,0,0,0,0,0,0,0,0,0,0,0,0,0,0,0,0,0,0,0,0,0,0,0,0,0,0,0,0,0,0,0,0,0,0,0,0,0,0,0,0,0,0,0,0,0,0,0,0,0,0,0,0,0,0,0,0,0,0,0,0,0,0,0,0,0,0,0,0,0],"sum_hessian":[1.316E4,9.625E3,3.535E3,8.631E3,9.94E2,1.307E3,2.228E3,4.498E3,4.133E3,4.29E2,5.65E2,9.33E2,3.74E2,8.14E2,1.414E3,2.067E3,2.431E3,2.838E3,1.295E3,2.34E2,1.95E2,4.53E2,1.12E2,4.38E2,4.95E2,1.57E2,2.17E2,4.74E2,3.4E2,6.1E2,8.04E2,9.14E2,1.153E3,2.367E3,6.4E1,2.069E3,7.69E2,8.53E2,4.42E2,1.68E2,6.6E1,3.4E1,1.61E2,2.79E2,1.74E2,3.1E1,8.1E1,1.14E2,3.24E2,5.7E1,4.38E2,1.05E2,5.2E1,1.84E2,3.3E1,2E2,2.74E2,7.1E1,2.69E2,3.6E1,5.74E2,5.15E2,2.89E2,3.14E2,6E2,1.145E3,8E0,3.23E2,2.044E3,5E1,1.4E1,2.044E3,2.5E1,6.77E2,9.2E1,5.33E2,3.2E2,1.86E2,2.56E2,6.3E1,1.05E2,3E1,3.6E1,1.8E1,1.6E1,2.2E1,1.39E2,2.5E2,2.9E1,1.52E2,2.2E1,3.3E1,8.1E1,1.93E2,1.31E2,3.9E1,1.8E1,3.91E2,4.7E1,8E0,9.7E1,5E0,1.79E2,1.59E2,4.1E1,1.85E2,8.9E1,5.8E1,1.3E1,2.23E2,4.6E1,2.76E2,2.39E2,5E0,2.84E2],"tree_param":{"num_deleted":"0","num_feature":"160","num_nodes":"115","size_leaf_vector":"1"}},{"base_weights":[5.515381E-2,9.621587E0,-2.6428022E1,1.1686275E1,-9.683498E0,-1.5832518E1,-3.3030388E1,1.4491308E1,4.53086E0,2.5498245E0,-1.6836275E1,-1.0954844E1,-2.136367E1,-2.8655582E1,-3.8297455E1,1.2310026E1,1.8233114E1,9.204146E0,-4.1299424E0,1.0566668E1,-8.724264E-1,-9.515653E0,-1.9947744E1,-5.18005E0,-2.050234E1,-2.7665491E1,-1.84627E1,-2.7058546E1,-1.7631863E0,-4.011549E1,-3.5059105E1,1.3616862E1,4.315067E0,1.7799236E1,1.0803746E0,-3.3243942E0,1.3138308E1,-2.387617E0,-2.2047747E1,1.5545362E1,3.2558062E0,2.5839896E0,-5.6428404E0,-6.086884E0,-1.7638906E1,-1.7810884E1,-2.6414272E1,-1.26850195E1,7.7801895E-1,-2.198237E1,1.0212307E1,-3.5726048E1,-2.4561918E1,-1.4673634E1,-2.6070211E1,-2.2721514E1,-2.9718134E1,-1.9394922E0,-2.1069665E0,-1.2599663E0,-3.5570698E1,8.2154846E-1,5.1644367E-1,-3.8572297E-1,6.6384304E-1,8.9971846E-1,-4.6108674E-2,1.6675785E-1,-1.2140706E0,7.1927863E-1,-1.8829416E-1,1.7859548E-1,-3.9584443E-1,-1.2410728E0,7.216215E-1,-2.8137675E-2,8.8228625E-1,-7.119847E-3,3.413686E-1,3.8257477E-1,-1.562833E-1,-1.12156E-2,-4.2342874E-1,-4.6334743E-1,4.8971355E-2,-6.71132E-1,-1.0029438E0,-1.0832881E0,-7.5412476E-1,-1.0399259E0,-1.3821266E0,-2.1789141E-1,-8.423185E-1,-1.0264719E0,2.789659E-1,-9.146809E-1,-1.4348648E0,1.7697355E-1,7.705978E-1,-1.2180663E0,-1.9261965E0,3.4894338E-1,-1.2873703E0,-5.9557414E-1,-1.2530843E0,-7.5275487E-1,-1.339494E0,-1.0238194E0,-1.4487629E0,-1.5269699E0,-1.1080525E0,-1.8129028E0,-1.5223488E0],"categories":[],"categories_nodes":[],"categories_segments":[],"categories_sizes":[],"default_left":[0,0,0,0,0,0,0,0,0,0,0,0,0,0,0,0,0,0,0,0,0,0,0,0,0,0,0,0,0,0,0,0,0,0,0,0,0,0,0,0,0,0,0,0,0,0,0,0,0,0,0,0,0,0,0,0,0,0,0,0,0,0,0,0,0,0,0,0,0,0,0,0,0,0,0,0,0,0,0,0,0,0,0,0,0,0,0,0,0,0,0,0,0,0,0,0,0,0,0,0,0,0,0,0,0,0,0,0,0,0,0,0,0],"id":14,"left_children":[1,3,5,7,9,11,13,15,17,19,21,23,25,27,29,31,33,35,37,39,41,43,45,47,49,51,53,55,-1,57,59,61,63,65,-1,67,69,71,73,75,77,79,81,83,85,87,89,91,93,95,97,99,101,103,105,107,109,-1,-1,-1,111,-1,-1,-1,-1,-1,-1,-1,-1,-1,-1,-1,-1,-1,-1,-1,-1,-1,-1,-1,-1,-1,-1,-1,-1,-1,-1,-1,-1,-1,-1,-1,-1,-1,-1,-1,-1,-1,-1,-1,-1,-1,-1,-1,-1,-1,-1,-1,-1,-1,-1,-1,-1],"loss_changes":[3.3176112E6,3.8355688E5,2.4256725E5,1.74371E5,8.142142E4,3.5806875E4,4.82065E4,5.0727625E4,9.916034E4,9.448051E3,1.3177859E4,3.9147227E4,1.0910469E4,1.14188125E4,4.285125E3,4.1178062E4,2.9744375E3,7.846395E4,2.676173E4,3.6965586E3,4.0051128E3,4.8202E3,5.2043594E3,1.990929E4,1.2408586E4,3.9946875E3,1.2037109E4,1.0266E4,0E0,1.875E0,8.9328125E2,3.1212938E4,6.0043188E4,7.4744375E3,0E0,5.3257086E4,2.5587953E4,2.5862957E4,8.0493594E3,2.0754424E3,5.235276E2,4.104022E3,1.5589858E3,2.841292E3,2.5797852E2,2.951039E3,1.09984375E2,6.7509805E3,2.5586605E4,5.811367E3,3.946079E2,7.086719E2,5.5658984E3,8.0188555E3,7.1816406E2,4.5265156E3,2.9486562E3,0E0,0E0,0E0,7.271875E1,0E0,0E0,0E0,0E0,0E0,0E0,0E0,0E0,0E0,0E0,0E0,0E0,0E0,0E0,0E0,0E0,0E0,0E0,0E0,0E0,0E0,0E0,0E0,0E0,0E0,0E0,0E0,0E0,0E0,0E0,0E0,0E0,0E0,0E0,0E0,0E0,0E0,0E0,0E0,0E0,0E0,0E0,0E0,0E0,0E0,0E0,0E0,0E0,0E0,0E0,0E0,0E0],"parents":[2147483647,0,0,1,1,2,2,3,3,4,4,5,5,6,6,7,7,8,8,9,9,10,10,11,11,12,12,13,13,14,14,15,15,16,16,17,17,18,18,19,19,20,20,21,21,22,22,23,23,24,24,25,25,26,26,27,27,29,29,30,30,31,31,32,32,33,33,35,35,36,36,37,37,38,38,39,39,40,40,41,41,42,42,43,43,44,44,45,45,46,46,47,47,48,48,49,49,50,50,51,51,52,52,53,53,54,54,55,55,56,56,60,60],"right_children":[2,4,6,8,10,12,14,16,18,20,22,24,26,28,30,32,34,36,38,40,42,44,46,48,50,52,54,56,-1,58,60,62,64,66,-1,68,70,72,74,76,78,80,82,84,86,88,90,92,94,96,98,100,102,104,106,108,110,-1,-1,-1,112,-1,-1,-1,-1,-1,-1,-1,-1,-1,-1,-1,-1,-1,-1,-1,-1,-1,-1,-1,-1,-1,-1,-1,-1,-1,-1,-1,-1,-1,-1,-1,-1,-1,-1,-1,-1,-1,-1,-1,-1,-1,-1,-1,-1,-1,-1,-1,-1,-1,-1,-1,-1],"split_conditions":[5.208305E-1,2.6281074E-1,5.3333336E-1,4.25E-1,3.8467407E-1,5.3066564E-1,6.786631E-1,5.03876E-1,2.0519608E-1,3.388611E-1,4.0462175E-1,2.2265099E-1,1.1563313E-1,3.4673024E-2,3.0852714E-1,2.0393072E-1,1.9642857E-1,3.993559E-1,7.663629E-1,4.826684E-1,2.7717757E-1,2.9009244E-1,3.242758E-2,3.816631E-1,7.4209726E-1,3.809524E-1,2.0672171E-1,6.547619E-1,-1.7631863E0,7.587103E-1,5.3119683E-1,6.156214E-3,5.394525E-1,4.4047618E-1,1.0803746E0,3.5404405E-1,7.590618E-1,5.767603E-1,6.3093066E-1,1.0682363E-1,7.2868216E-1,6.419083E-1,2.4624856E-1,7.51938E-1,6.003769E-2,3.5658914E-1,3.8630953E-1,6.279954E-2,3.2142857E-1,3.6930457E-1,7.637032E-2,2.797035E-1,5.198346E-1,6.376812E-1,1.9025397E-2,6.247987E-1,4.4221747E-1,-1.9394922E0,-2.1069665E0,-1.2599663E0,1.0660981E-2,8.2154846E-1,5.1644367E-1,-3.8572297E-1,6.6384304E-1,8.9971846E-1,-4.6108674E-2,1.6675785E-1,-1.2140706E0,7.1927863E-1,-1.8829416E-1,1.7859548E-1,-3.9584443E-1,-1.2410728E0,7.216215E-1,-2.8137675E-2,8.8228625E-1,-7.119847E-3,3.413686E-1,3.8257477E-1,-1.562833E-1,-1.12156E-2,-4.2342874E-1,-4.6334743E-1,4.8971355E-2,-6.71132E-1,-1.0029438E0,-1.0832881E0,-7.5412476E-1,-1.0399259E0,-1.3821266E0,-2.1789141E-1,-8.423185E-1,-1.0264719E0,2.789659E-1,-9.146809E-1,-1.4348648E0,1.7697355E-1,7.705978E-1,-1.2180663E0,-1.9261965E0,3.4894338E-1,-1.2873703E0,-5.9557414E-1,-1.2530843E0,-7.5275487E-1,-1.339494E0,-1.0238194E0,-1.4487629E0,-1.5269699E0,-1.1080525E0,-1.8129028E0,-1.5223488E0],"split_indices":[15,128,95,95,60,90,15,152,128,140,110,128,77,126,50,25,132,122,158,113,67,27,126,137,113,132,77,33,0,15,10,144,122,133,0,62,138,93,55,62,103,155,142,153,129,152,80,121,132,62,146,112,65,123,129,123,35,0,0,0,139,0,0,0,0,0,0,0,0,0,0,0,0,0,0,0,0,0,0,0,0,0,0,0,0,0,0,0,0,0,0,0,0,0,0,0,0,0,0,0,0,0,0,0,0,0,0,0,0,0,0,0,0],"split_type":[0,0,0,0,0,0,0,0,0,0,0,0,0,0,0,0,0,0,0,0,0,0,0,0,0,0,0,0,0,0,0,0,0,0,0,0,0,0,0,0,0,0,0,0,0,0,0,0,0,0,0,0,0,0,0,0,0,0,0,0,0,0,0,0,0,0,0,0,0,0,0,0,0,0,0,0,0,0,0,0,0,0,0,0,0,0,0,0,0,0,0,0,0,0,0,0,0,0,0,0,0,0,0,0,0,0,0,0,0,0,0,0,0],"sum_hessian":[1.3093E4,9.619E3,3.474E3,8.69E3,9.29E2,1.335E3,2.139E3,6.242E3,2.448E3,3.43E2,5.86E2,7.11E2,6.24E2,1.172E3,9.67E2,3.946E3,2.296E3,1.59E3,8.58E2,1.02E2,2.41E2,1.76E2,4.1E2,4.44E2,2.67E2,1.94E2,4.3E2,9.48E2,2.24E2,6.12E2,3.55E2,3.391E3,5.55E2,2.04E3,2.56E2,3.8E2,1.21E3,7.83E2,7.5E1,6E1,4.2E1,1.4E2,1.01E2,1.25E2,5.1E1,3.11E2,9.9E1,1.96E2,2.48E2,2.55E2,1.2E1,5.1E1,1.43E2,2.89E2,1.41E2,3.64E2,5.84E2,3.82E2,2.3E2,2E1,3.35E2,1.825E3,1.566E3,2.37E2,3.18E2,2.019E3,2.1E1,2.89E2,9.1E1,1.127E3,8.3E1,3.77E2,4.06E2,7E1,5E0,7E0,5.3E1,2.2E1,2E1,7.4E1,6.6E1,3.5E1,6.6E1,8.6E1,3.9E1,2.1E1,3E1,1.26E2,1.85E2,2.1E1,7.8E1,6.6E1,1.3E2,4.5E1,2.03E2,1.67E2,8.8E1,6E0,6E0,1.2E1,3.9E1,5E0,1.38E2,2.3E2,5.9E1,1E1,1.31E2,2.71E2,9.3E1,5.24E2,6E1,2.9E2,4.5E1],"tree_param":{"num_deleted":"0","num_feature":"160","num_nodes":"113","size_leaf_vector":"1"}},{"base_weights":[-2.0022072E-2,9.723202E0,-2.331378E1,1.1395413E1,-1.026056E1,-1.2631469E1,-3.0882864E1,1.4664772E1,6.4769235E0,1.5427363E0,-1.5234888E1,-8.741196E0,-1.925828E1,-2.622293E1,-3.5708748E1,1.2602341E1,1.7472775E1,8.897136E0,-6.6024084E0,5.058489E0,-7.6584272E0,-1.1767513E1,-2.1682959E1,-5.622162E0,-1.9597727E1,-2.0292465E1,6.0157237E0,-2.0957386E1,-2.8096375E1,-3.244574E1,-3.7684856E1,9.15245E0,1.5908451E1,1.805845E1,1.4349719E1,-4.9131956E0,1.0459177E1,-1.2568994E1,8.922397E0,8.1845455E0,-8.80218E-1,-4.1050153E0,-6.944086E-1,-1.6583225E1,-6.4161124E0,-1.9639523E1,-1.331787E0,-1.353181E1,4.3773076E-1,-4.5148873E0,-2.0576612E1,-2.412355E1,-1.4473202E1,-5.9683233E-1,1.758959E1,-1.58011055E1,-2.7037945E1,-2.5845856E1,-3.1062502E1,-2.697519E1,-3.3506355E1,-1.9448553E0,-1.7783648E0,-1.2199723E-1,5.1164687E-1,1.0532317E0,6.5770453E-1,9.103964E-1,5.572182E-1,1.0760015E0,5.984161E-1,-4.4469874E-2,-1.1732773E0,5.457437E-1,-9.351198E-1,1.2436038E0,-6.767086E-1,7.767138E-1,-8.017622E-2,5.718357E-1,1.1236846E-1,-1.5485646E-1,2.54178E-1,1.9941506E-1,-3.001594E-1,-7.5552493E-1,-1.4558142E0,-1.23230614E-1,-5.1926965E-1,-8.131834E-1,-1.0422777E0,-8.8346213E-1,-3.423129E-1,-7.3125434E-1,2.1170668E-1,-8.709354E-1,1.8344463E-1,-7.114824E-1,-1.108153E0,-1.3343856E0,-7.781097E-1,-5.8304447E-1,-1.2001487E0,1.1932698E0,2.0908235E-1,-4.1684923E-1,-9.358223E-1,-7.758073E-1,-1.4966773E0,-1.5113953E0,-1.2173212E0,-1.4129318E0,-1.6644789E0,-9.889533E-1,-1.4549842E0,-1.547952E0,-1.8110764E0],"categories":[],"categories_nodes":[],"categories_segments":[],"categories_sizes":[],"default_left":[0,0,0,0,0,0,0,0,0,0,0,0,0,0,0,0,0,0,0,0,0,0,0,0,0,0,0,0,0,0,0,0,0,0,0,0,0,0,0,0,0,0,0,0,0,0,0,0,0,0,0,0,0,0,0,0,0,0,0,0,0,0,0,0,0,0,0,0,0,0,0,0,0,0,0,0,0,0,0,0,0,0,0,0,0,0,0,0,0,0,0,0,0,0,0,0,0,0,0,0,0,0,0,0,0,0,0,0,0,0,0,0,0,0,0,0,0],"id":15,"left_children":[1,3,5,7,9,11,13,15,17,19,21,23,25,27,29,31,33,35,37,39,41,43,45,47,49,51,53,55,57,59,61,63,65,67,69,71,73,75,77,79,81,83,-1,85,87,89,-1,91,93,95,97,99,101,-1,103,105,107,109,111,113,115,-1,-1,-1,-1,-1,-1,-1,-1,-1,-1,-1,-1,-1,-1,-1,-1,-1,-1,-1,-1,-1,-1,-1,-1,-1,-1,-1,-1,-1,-1,-1,-1,-1,-1,-1,-1,-1,-1,-1,-1,-1,-1,-1,-1,-1,-1,-1,-1,-1,-1,-1,-1,-1,-1,-1,-1],"loss_changes":[2.9658662E6,3.08022E5,3.11222E5,1.3663375E5,4.1828867E4,4.1077016E4,4.97685E4,2.9353E4,1.0759019E5,6.896471E3,1.0942797E4,3.4087797E4,1.5571078E4,1.07604375E4,5.895375E3,3.3476E4,3.6884375E3,6.189975E4,4.9299086E4,2.866903E3,1.2472634E3,8.344125E3,1.2332656E3,3.7681484E4,3.2265781E3,1.2310031E4,5.197206E3,9.162531E3,4.838875E3,1.5501875E3,3.598125E2,1.8125008E4,2.107925E4,1.6699375E3,5.647164E3,2.1774762E4,3.4435438E4,1.4212215E4,1.0326527E4,1.9231089E3,7.294887E2,6.232818E2,0E0,2.7303516E3,2.4356035E3,1.7432812E2,0E0,9.308984E3,2.5565182E4,1.6493125E3,1.8055703E3,7.066328E3,5.8270977E3,0E0,1.1595835E3,3.4970078E3,4.1683984E3,2.4584688E3,1.3010938E3,5.508672E2,1.2995938E3,0E0,0E0,0E0,0E0,0E0,0E0,0E0,0E0,0E0,0E0,0E0,0E0,0E0,0E0,0E0,0E0,0E0,0E0,0E0,0E0,0E0,0E0,0E0,0E0,0E0,0E0,0E0,0E0,0E0,0E0,0E0,0E0,0E0,0E0,0E0,0E0,0E0,0E0,0E0,0E0,0E0,0E0,0E0,0E0,0E0,0E0,0E0,0E0,0E0,0E0,0E0,0E0,0E0,0E0,0E0,0E0],"parents":[2147483647,0,0,1,1,2,2,3,3,4,4,5,5,6,6,7,7,8,8,9,9,10,10,11,11,12,12,13,13,14,14,15,15,16,16,17,17,18,18,19,19,20,20,21,21,22,22,23,23,24,24,25,25,26,26,27,27,28,28,29,29,30,30,31,31,32,32,33,33,34,34,35,35,36,36,37,37,38,38,39,39,40,40,41,41,43,43,44,44,45,45,47,47,48,48,49,49,50,50,51,51,52,52,54,54,55,55,56,56,57,57,58,58,59,59,60,60],"right_children":[2,4,6,8,10,12,14,16,18,20,22,24,26,28,30,32,34,36,38,40,42,44,46,48,50,52,54,56,58,60,62,64,66,68,70,72,74,76,78,80,82,84,-1,86,88,90,-1,92,94,96,98,100,102,-1,104,106,108,110,112,114,116,-1,-1,-1,-1,-1,-1,-1,-1,-1,-1,-1,-1,-1,-1,-1,-1,-1,-1,-1,-1,-1,-1,-1,-1,-1,-1,-1,-1,-1,-1,-1,-1,-1,-1,-1,-1,-1,-1,-1,-1,-1,-1,-1,-1,-1,-1,-1,-1,-1,-1,-1,-1,-1,-1,-1,-1],"split_conditions":[5.072924E-1,2.390604E-1,5.25E-1,5.199477E-1,3.6604464E-1,8.928572E-2,5.9166664E-1,5.974235E-1,2.2677915E-1,2.4750964E-1,2.7016826E-2,2.5845823E-1,5.20155E-1,5.8544904E-1,6.971303E-1,0E0,3.809524E-1,3.9774558E-1,7.3134327E-1,8.602596E-1,2.7999642E-1,5.7796186E-1,4.710132E-1,3.7739873E-1,5.668277E-1,-4.2643923E-2,5.984132E-1,6.167472E-1,1.1309524E-1,1.8171106E-2,1.7716101E-1,6.0370064E-1,2.1321962E-3,2.0672171E-1,8.123667E-1,3.5513407E-1,6.8933946E-1,3.302109E-2,3.0319354E-1,2.5483263E-1,2.4971142E-1,4.651163E-1,-6.944086E-1,8.30543E-2,4.6865508E-1,3.8515642E-1,-1.331787E0,1.8935655E-1,3.1547618E-1,4.8470208E-1,5.748365E-1,1.2882448E-2,2.3342412E-2,